tree
version=v4
num_class=1
num_tree_per_iteration=1
label_index=0
max_feature_idx=82
objective=binary sigmoid:1
feature_names=Column_0 Column_1 Column_2 Column_3 Column_4 Column_5 Column_6 Column_7 Column_8 Column_9 Column_10 Column_11 Column_12 Column_13 Column_14 Column_15 Column_16 Column_17 Column_18 Column_19 Column_20 Column_21 Column_22 Column_23 Column_24 Column_25 Column_26 Column_27 Column_28 Column_29 Column_30 Column_31 Column_32 Column_33 Column_34 Column_35 Column_36 Column_37 Column_38 Column_39 Column_40 Column_41 Column_42 Column_43 Column_44 Column_45 Column_46 Column_47 Column_48 Column_49 Column_50 Column_51 Column_52 Column_53 Column_54 Column_55 Column_56 Column_57 Column_58 Column_59 Column_60 Column_61 Column_62 Column_63 Column_64 Column_65 Column_66 Column_67 Column_68 Column_69 Column_70 Column_71 Column_72 Column_73 Column_74 Column_75 Column_76 Column_77 Column_78 Column_79 Column_80 Column_81 Column_82
feature_infos=[0:1] [0:1] [0:4.3011626335213133] [0:7.5] [0:7.5] [0:1] [0:1] [0:0.44] [0:8] [0:136.4864] [0:6] [0:6] [0:1] [0:6] [0:6] [0:1] [0:99] [0:99] [0:99] [0:99] [0:3] none none [0:18] [0:1] [0:1] [0:1] [0:1] [0:3] [0:1] [0:1] [0:1] [0:1] [0:3.1415926535897931] none none none none [0:182] [0:151] [0:119] [0:149] [0:131] [0:140] [0:102] [0:130] [0:1] [0:0.75] [0:1] [0:0.70370370370370372] [0:0.77272727272727271] [0:0.8125] [0:0.875] [0:0.7142857142857143] [0:0.82499999999999996] [0:999] [0:1] [0:1] [0:1] [0:1] [0:999] [0:999] [0:999] [0:999] [0:999] [0:999] [0:1.9344889834412085] [0:999] none none none none none none none none [0:7] [0:1] [0:1] [0:14] [0:4] [0.25:1] [0:999]
tree_sizes=3302 3452 3479 3490 3464 3481 3480 3476 3484 3474 3359 3491 3489 3492 3490 3476 3482 3491 3481 3469 3494 3347 3509 3498 3435 3497 3477 3456 3433 3135

Tree=0
num_leaves=30
num_cat=0
split_feature=79 79 77 6 40 0 12 45 39 52 46 78 43 17 50 3 42 65 9 77 53 18 81 23 81 2 17 16 80
split_gain=126.503 54.3869 37.5046 36.144 35.6703 48.7313 133.044 32.1116 37.5578 28.9864 25.5056 24.7031 23.3913 22.5575 20.9205 20.3894 24.6442 19.5071 18.3552 18.3307 18.6334 16.5936 14.5622 14.1607 13.3937 10.1817 5.35975 1.2518 1.1067
threshold=2.5000000000000004 7.5000000000000009 0.82765479104768991 1.0000000180025095e-35 1.5000000000000002 1.0000000180025095e-35 0.29166666666666674 24.500000000000004 17.500000000000004 0.017817460317460319 0.11696737653915575 0.76400015625610385 16.500000000000004 4.5000000000000009 0.20030864197530868 2.6961538461538468 41.500000000000007 3.25659022548647 23.216049382716054 0.95708392743267201 0.26329937747594795 79.500000000000014 0.62500000000000011 7.5000000000000009 0.62500000000000011 2.6611576246735766 57.500000000000007 28.500000000000004 2.5000000000000004
decision_type=2 2 2 2 2 2 2 2 2 2 2 2 2 2 2 2 2 2 2 2 2 2 2 2 2 2 2 2 2
left_child=3 2 10 17 5 9 -7 8 -4 -5 14 -12 -9 15 -2 -3 -17 24 21 23 -21 -15 -20 -6 26 -26 -1 -19 -29
right_child=1 13 7 4 19 6 -8 12 -10 -11 11 -13 -14 18 -16 16 -18 27 22 20 -22 -23 -24 -25 25 -27 -28 28 -30
leaf_value=-0.62493827291640758 -0.64163719430267352 -0.70033751656901488 -0.633466373691431 -0.60485964623539779 -0.64714381262491427 -0.71707526554311918 -0.65374121547646158 -0.63589854184246131 -0.64602243740569765 -0.67937807305651909 -0.64888164695844586 -0.60832961757755755 -0.62150021101271535 -0.62482943903532639 -0.62993019498737524 -0.6197565934386734 -0.54954377815809874 -0.60537462920260487 -0.68383289148531845 -0.6233399873899621 -0.68089852702196485 -0.59393212049959621 -0.63262038672815923 -0.59813019343379337 -0.65721167418176396 -0.583276434042452 -0.68928615417536965 -0.58064807125844975 -0.52625784037077983
leaf_weight=4.0668607950210562 2806.5858219861984 3.6149873733520499 1341.3862522244453 64.617899298667908 3880.6889452934265 91.052494466304779 848.16641247272491 577.49423289299011 1069.132515668869 15.363696336746214 1497.056645989418 37.505493998527527 554.90056180953979 225.25890070199966 440.57658612728119 30.275519251823425 21.689924240112305 4.5187342166900661 13.104329228401182 135.5620265007019 14.685886204242705 53.998873889446259 852.91108340024948 13.782139360904692 6.1002911925315884 14.008076071739195 8.811531722545622 9.7152785658836347 4.0668607950210562
leaf_count=18 12422 16 5937 286 17176 403 3754 2556 4732 68 6626 166 2456 997 1950 134 96 20 58 600 65 239 3775 61 27 62 39 43 18
internal_value=-0.641637 -0.638231 -0.639668 -0.647979 -0.648405 -0.656764 -0.65996 -0.63577 -0.639037 -0.619525 -0.642556 -0.647866 -0.628827 -0.628288 -0.640047 -0.597399 -0.589171 -0.606626 -0.629828 -0.646295 -0.629221 -0.618688 -0.633449 -0.646958 -0.630533 -0.605618 -0.668866 -0.566602 -0.557541
internal_weight=14640.7 9525.49 8324.64 5115.21 5063.92 1019.2 939.219 3542.91 2410.52 79.9816 4781.72 1534.56 1132.39 1200.85 3247.16 55.5804 51.9654 51.2876 1145.27 4044.72 150.248 279.258 866.015 3894.47 32.9868 20.1084 12.8784 18.3009 13.7821
internal_count=64800 42160 36845 22640 22413 4511 4157 15681 10669 354 21164 6792 5012 5315 14372 246 230 227 5069 17902 665 1236 3833 17237 146 89 57 81 61
is_linear=0
shrinkage=1


Tree=1
num_leaves=31
num_cat=0
split_feature=79 79 46 5 30 78 40 0 12 64 77 17 41 9 19 51 50 42 55 77 77 19 16 23 48 51 52 81 51 45
split_gain=114.284 48.8151 33.84 28.8715 27.8067 25.236 22.979 77.3837 125.909 31.0581 20.6935 19.9843 19.2196 16.3759 18.2158 16.1104 15.7428 19.9901 15.6121 14.9222 13.3756 12.7329 13.514 12.7991 11.8211 10.5746 9.11871 8.89462 8.54467 8.51245
threshold=2.5000000000000004 7.5000000000000009 0.1214146860740425 0.62384828006282012 0.30384615384615393 0.5971872335669538 1.5000000000000002 1.0000000180025095e-35 0.29166666666666674 1.228553390593274 0.88319348578960233 4.5000000000000009 62.500000000000007 23.216049382716054 77.500000000000014 0.30986206458174426 0.18061391223155931 36.500000000000007 2.643347228124433 0.95708392743267201 0.61001100994379187 1.0000000180025095e-35 51.500000000000007 7.5000000000000009 0.23150428753877031 0.30986206458174426 0.022271825396825401 0.62500000000000011 0.049416632749966084 7.5000000000000009
decision_type=2 2 2 2 2 2 2 2 2 2 2 2 2 2 2 2 2 2 2 2 2 2 2 2 2 2 2 2 2 2
left_child=6 2 4 10 12 -6 7 9 -9 28 -4 16 -2 14 -13 -15 17 -3 -18 21 -5 22 -8 -23 -10 26 -21 -11 -1 -27
right_child=1 11 3 20 5 -7 19 8 24 27 -12 13 -14 15 -16 -17 18 -19 -20 25 -22 23 -24 -25 -26 29 -28 -29 -30 -31
leaf_value=0.027092707162237981 0.0062609574656557381 0.022835190270459573 -0.0088698024059317964 0.050044517209849898 0.0059330323265047169 -0.0041192450989831677 -0.010876868629370746 -0.073524932460809364 -0.012205608588469826 0.062923229920888946 0.016343377665102611 0.014691325040648988 0.049895834697130922 0.0066597373329924979 0.045310776741470854 0.050669937761528498 -0.026410174073947752 0.093292423359707499 0.094717668018626744 0.037046658070151325 0.0041994692804775049 -0.00535117725598553 0.058579853450351826 0.040962973182405632 0.024446957058144519 0.10430471814417773 0.0027150563010781992 0.027959085681604885 -0.049422237805875895 -0.021033320271466059
leaf_weight=4.0516624152660397 3579.3026383817196 22.284435823559761 1396.7479823082685 15.379410922527311 1023.1017468869686 1598.4032856822014 11.728574216365816 88.832828253507614 829.29838381707668 28.668493866920471 85.377047836780548 218.62561665475368 24.472903445363045 847.82251340150833 62.572210162878036 20.390893220901489 12.497894525527952 19.207376584410667 2.3111902177333823 22.032238766551018 606.82125923037529 3867.1895739138126 15.111816778779028 13.963430866599081 21.607911586761475 4.0897027552127829 124.6837305277586 58.641589060425758 13.628910303115843 1.3632342517375944
leaf_count=18 15819 98 6190 68 4524 7072 52 403 3684 125 377 961 108 3743 275 90 55 83 10 97 2687 17145 67 61 96 18 550 257 61 6
internal_value=0 0.00323227 0.00186973 -0.00360934 0.0037229 -0.000193443 -0.00603689 -0.0126498 -0.0172062 0.0278631 -0.007404 0.0126318 0.00657242 0.0111777 0.0216589 0.00775622 0.0415185 0.0569969 -0.00239442 -0.00433136 0.00541916 -0.0049312 0.0287489 -0.00517275 -0.0112414 0.0109727 0.00812035 0.0400788 -0.0311088 0.0737917
internal_weight=14640.2 9535.32 8329.61 2104.33 6225.28 2621.51 5104.89 1044.73 939.739 104.991 1482.13 1205.71 3603.78 1149.41 281.198 868.213 56.3009 41.4918 14.8091 4060.16 622.201 3907.99 26.8404 3881.15 850.906 152.169 146.716 87.3101 17.6806 5.45294
internal_count=64800 42160 36845 9322 27523 11596 22640 4644 4183 461 6567 5315 15927 5069 1236 3833 246 181 65 17996 2755 17325 119 17206 3780 671 647 382 79 24
is_linear=0
shrinkage=0.05


Tree=2
num_leaves=31
num_cat=0
split_feature=82 46 29 79 82 79 81 49 41 65 18 65 16 77 19 44 16 49 77 57 39 16 50 76 53 80 54 47 78 45
split_gain=452.86 55.3088 55.0629 42.0985 58.671 28.9405 26.8572 123.894 30.6333 23.045 24.5384 22.7551 21.981 21.6906 23.0615 21.3096 20.1992 24.8394 20.5434 20.1647 24.483 19.4187 27.8712 18.982 17.5899 17.5896 16.2898 12.8495 10.651 8.67643
threshold=1.0000000180025095e-35 0.1214146860740425 0.10555555555555557 2.5000000000000004 1.2071067811865477 5.5000000000000009 0.87500000000000011 0.0078745039682539698 4.5000000000000009 3.5177669529663693 72.500000000000014 4.3013950709106776 30.500000000000004 0.9910595863606575 17.500000000000004 32.500000000000007 20.500000000000004 0.19785943223443225 0.86101485441115766 0.43650793650793657 50.500000000000007 29.500000000000004 0.01593650793650794 1.0000000180025095e-35 0.18973499361430399 2.5000000000000004 0.034735628485628493 0.17193750000000002 0.56255865589305742 13.500000000000002
decision_type=2 2 2 2 2 2 2 2 2 2 2 2 2 2 2 2 2 2 2 2 2 2 2 2 2 2 2 2 2 2
left_child=2 3 12 6 15 19 8 -8 -2 13 11 -11 21 25 -15 -5 17 -7 -18 23 -21 27 -23 -4 -6 -3 -14 -1 -28 -12
right_child=1 9 5 4 24 16 7 -9 -10 10 29 -13 26 14 -16 -17 18 -19 -20 20 -22 22 -24 -25 -26 -27 28 -29 -30 -31
leaf_value=-0.0059428583515154449 0.040388274956998357 -0.0035393371030773332 -0.044087818572884185 0.010135365402019779 -0.012012902617583891 -0.024375461969660363 -0.066722771429934463 0.0026325348972540551 -0.030167095520869221 0.0522630784810795 -0.052313107906219528 -0.029542773933931399 -0.044767733542539066 -0.037418718226043771 0.048417104411021102 0.018630825636853237 -0.0029408322413531792 0.037250289783478129 0.019758513266768959 -0.010814757846582713 0.04138714417213829 -0.062279478534665728 0.063513814806308619 -0.017738843595359051 0.028749038331552013 0.0037421700034434855 -0.016990948928536281 -0.02250724904405663 -0.027152824713988735 0.031390519475984334
leaf_weight=233.05611130595207 78.298581600189209 2109.5747672319412 82.057885870337486 3951.5260324031115 342.71278354525566 163.23262840509415 66.085559532046318 1602.3550780415535 18.225581526756287 54.94615338742733 10.638456284999846 9.2715191096067411 94.895627528429031 8.805080980062483 40.253152906894684 911.99932473897934 758.45820306241512 17.208490833640099 113.73194091022015 775.52030438184738 22.127718567848206 4.9445703625679043 16.690193623304367 420.11252407729626 27.667334094643593 1364.9593791365623 445.483851313591 238.40447248518467 652.34530076384544 3.3815065026283255
leaf_count=1034 339 9366 363 17442 1513 720 306 7112 81 242 47 41 426 39 177 4018 3347 76 501 3432 98 22 74 1859 122 6060 1975 1058 2895 15
internal_value=1.00762e-06 0.00542924 -0.014245 0.00801985 0.0102715 -0.00929234 0.0013378 -0.000149898 0.0268421 0.000393092 0.0270599 0.0401037 -0.0211435 -0.000205107 0.0324715 0.0117329 -0.00311919 -0.0182978 3.26314e-05 -0.0142815 -0.00931035 -0.012206 0.0330618 -0.0221334 -0.00888532 -0.000677129 -0.024821 -0.0143595 -0.023053 -0.0310458
internal_weight=14639 10600.7 4038.27 6998.87 5233.91 2352.45 1764.96 1668.44 96.5242 3601.83 78.2376 64.2177 1685.82 3523.59 49.0582 4863.53 1052.63 180.441 872.19 1299.82 797.648 493.095 21.6348 502.17 370.38 3474.53 1192.72 471.461 1097.83 14.02
internal_count=64800 46920 17880 30933 23095 10396 7838 7418 420 15987 345 283 7484 15642 216 21460 4644 796 3848 5752 3530 2188 96 2222 1635 15426 5296 2092 4870 62
is_linear=0
shrinkage=0.05


Tree=3
num_leaves=31
num_cat=0
split_feature=82 40 79 82 48 79 3 77 5 82 64 81 54 9 12 51 12 16 50 54 32 77 2 40 79 48 46 46 51 23
split_gain=410.039 61.2403 50.0128 56.1963 53.0834 40.2079 32.9237 30.8503 27.0006 25.1339 31.2919 77.7041 25.1402 24.859 25.9857 23.7292 21.9495 20.0712 18.7156 17.6698 18.9551 17.6065 16.825 13.3423 14.4781 12.405 11.4963 10.7144 10.0141 8.56084
threshold=1.0000000180025095e-35 25.500000000000004 2.5000000000000004 1.2071067811865477 0.25034435261707993 7.5000000000000009 2.0714285714285716 0.85948547159005184 0.7010151494202076 1.2071067811865477 2.0153021868590586 0.87500000000000011 0.015707236842105267 20.554577777777777 0.68465909090909105 0.083527131782945754 0.92916666666666681 14.500000000000002 0.1897690674864588 0.20038610038610041 1.0000000180025095e-35 0.61478293145603258 2.7793117769404998 50.500000000000007 4.5000000000000009 0.16519798136645966 0.078329297056599981 0.094203554109668811 0.13646885521885524 2.5000000000000004
decision_type=2 2 2 2 2 2 2 2 2 2 2 2 2 2 2 2 2 2 2 2 2 2 2 2 2 2 2 2 2 2
left_child=1 5 9 4 6 8 -4 23 15 10 16 -12 29 14 -9 -1 -2 -7 -15 20 -5 -6 -14 25 -25 -3 -21 -10 -19 -11
right_child=2 7 3 19 21 17 -8 13 27 12 11 -13 22 18 -16 -17 -18 28 -20 26 -22 -23 -24 24 -26 -27 -28 -29 -30 -31
leaf_value=-0.023247738587026348 0.0014199176450033738 -0.0053724722626008973 -0.012747380556687327 0.0041642817522352252 0.033934477594065295 -0.043018151281245712 0.010926277191923838 0.071927561593129186 -0.044946260956846174 0.05028392038258124 0.028790002009756913 -0.055537312849543732 -0.0089913820275499094 0.051238966034244583 -0.0041193393966264709 -0.013360121962232387 -0.012797484643142008 -0.017046284003716373 -0.040485213991285567 -0.022236046638207989 -0.01809652469387571 -0.0075110191348642403 0.017660158938946197 0.043082532519802923 -0.00051949621038455205 -0.017363274746518657 0.035433230281693109 -0.0148661275204219 0.036554367539743886 -0.036328861176906591
leaf_weight=1037.0452869534492 2959.3016683757305 577.47818388044834 149.74229666590691 135.43270009756088 25.860097020864487 10.567928537726401 5717.6059686094522 11.288681924343107 130.64100559055805 49.179743856191635 41.274739891290665 76.677460923790932 94.252406895160675 50.36371523141861 129.38516138494015 1488.2200478613377 297.87259657680988 9.5539973676204664 5.4309321492910376 10.638932690024374 319.1097501963377 549.38320742547512 155.35273708403111 22.177107363939285 105.30271302163601 346.42452126741409 33.649051383137703 40.590578943490982 55.550924032926559 2.2664899528026572
leaf_count=4632 13140 2557 663 600 114 47 25169 50 588 213 177 359 419 222 572 6619 1324 42 24 47 1413 2434 689 98 465 1539 149 181 244 10
internal_value=-5.65004e-07 -0.0135992 0.00514844 0.00764549 0.00889784 -0.0177392 0.0103192 -0.00439101 -0.0187501 0.000431306 -0.000803684 -0.0259929 0.0142503 0.0137402 0.00241254 -0.0174302 0.000114655 0.0179939 0.0416671 -0.0085045 -0.0114583 -0.0055835 0.0075807 -0.00779373 0.00730313 -0.00988784 0.0212843 -0.0379725 0.0284741 0.0457529
internal_weight=14637.6 4020.02 10617.6 6941.42 6442.59 2772.17 5867.35 1247.85 2696.5 3676.18 3375.13 117.952 301.051 196.468 140.674 2525.27 3257.17 75.6728 55.7946 498.83 454.542 575.243 249.605 1051.38 127.48 923.903 44.288 171.232 65.1049 51.4462
internal_count=64800 17880 46920 30589 28380 12353 25832 5527 12020 16331 15000 536 1331 868 622 11251 14464 333 246 2209 2013 2548 1108 4659 563 4096 196 769 286 223
is_linear=0
shrinkage=0.05


Tree=4
num_leaves=31
num_cat=0
split_feature=79 79 77 45 39 6 40 81 12 52 42 50 38 38 18 40 77 55 66 77 53 77 60 42 2 57 81 42 44 16
split_gain=86.5545 40.3695 31.1108 27.8417 32.6048 27.0202 27.6129 33.5895 106.488 22.1758 19.9732 18.8586 19.7122 18.3463 16.5804 20.6506 16.6762 15.9084 14.2413 13.9079 16.4535 13.3486 12.7488 12.6066 11.2565 10.5673 7.23083 2.62726 2.58806 1.73997
threshold=2.5000000000000004 7.5000000000000009 0.82765479104768991 24.500000000000004 17.500000000000004 1.0000000180025095e-35 1.5000000000000002 0.87500000000000011 0.29166666666666674 0.017817460317460319 16.500000000000004 0.014019916142557654 3.5000000000000004 39.500000000000007 79.500000000000014 27.500000000000004 0.88180576457637849 2.564039120180579 0.50583953750673982 0.95708392743267201 0.26329937747594795 0.80795085003126776 2.9142135623730954 30.500000000000004 2.6611576246735766 0.095454545454545472 0.62500000000000011 35.500000000000007 4.5000000000000009 28.500000000000004
decision_type=2 2 2 2 2 2 2 2 2 2 2 2 2 2 2 2 2 2 2 2 2 2 2 2 2 2 2 2 2 2
left_child=5 2 11 4 -4 22 7 9 -9 -7 -5 13 -13 -2 17 21 -17 18 -3 23 -21 -16 24 -8 28 -19 -26 29 -1 -24
right_child=1 14 3 10 -6 6 19 8 -10 -11 -12 12 -14 -15 15 16 -18 25 -20 20 -22 -23 27 -25 26 -27 -28 -29 -30 -31
leaf_value=-0.057716824455539599 0.0052145568868169814 0.010626892869680486 0.0072265082768201488 0.0058017325327444601 -0.0044574602979963159 0.02982315464609437 -0.0038357456995690934 -0.069519915730106463 -0.010409186005068917 -0.035598069382727693 0.019200988869783348 -0.012835305509589199 0.00045394150538833277 -0.026533806495639658 0.078875073711560093 0.0117365958237945 0.089294503175573053 -0.033706647087793314 -0.0037849412208847662 0.016462915668409676 -0.037880213680418773 0.027846334178121709 0.027287611609168195 -0.019364049640827139 -0.010547665511124784 0.053645962406785902 0.051309812917753272 -0.00921967949157039 -0.0087368656689786901 0.073267662872191372
leaf_weight=3.5686738193035117 67.545694693922997 718.078961789608 1348.645359441638 653.71909169852734 1069.4488977491856 66.777816906571388 3735.6830725967884 82.940435364842415 838.23223327100277 15.059479758143423 486.69598278403282 297.45143693685532 4285.2555957734585 135.19801117479801 22.457713633775711 179.99489307403564 6.2727021276950827 3.1910747885704067 223.90034063160419 136.89699111878872 14.498150780797003 33.284278362989426 4.749489873647696 134.72232240438461 6.3177803456783286 27.102997109293938 13.841433271765711 0.92567592859268089 8.4696186035871488 14.566373869776724
leaf_count=16 300 3143 5937 2879 4732 286 16638 403 3754 68 2133 1323 18937 604 98 788 27 14 983 600 65 145 20 599 28 117 60 4 38 61
internal_value=-2.30123e-06 0.00279974 0.00155879 0.00509887 0.00205727 -0.00527781 -0.00565373 -0.0130742 -0.0158064 0.0174398 0.0115363 -0.00107312 -0.00041015 -0.0159584 0.0113145 0.023018 0.014838 0.00837554 0.00719564 -0.00379909 0.0110116 0.049521 0.0300819 -0.00438241 0.00972668 0.0435017 0.0321054 0.0602427 -0.0269532 0.0641076
internal_weight=14635.5 9558.24 8343.96 3558.51 2418.09 5077.25 5024.81 1003.01 921.173 81.8373 1140.42 4785.45 4582.71 202.744 1214.28 242.01 186.268 972.273 941.979 4021.8 151.395 55.742 52.439 3870.41 32.1975 30.2941 20.1592 20.2415 12.0383 19.3159
internal_count=64800 42160 36845 15681 10669 22640 22413 4511 4157 354 5012 21164 20260 904 5315 1058 815 4257 4126 17902 665 243 227 17237 142 131 88 85 54 81
is_linear=0
shrinkage=0.05


Tree=5
num_leaves=31
num_cat=0
split_feature=82 40 79 82 79 77 52 45 18 78 9 12 12 77 82 18 82 50 4 12 12 9 57 51 16 40 45 38 42 16
split_gain=370.296 54.2264 43.5519 61.6345 34.6957 27.8526 24.7853 38.6007 22.8783 21.732 21.6899 23.2634 20.9936 23.7291 22.5107 17.1166 26.7008 16.7282 16.7147 15.9569 15.2232 14.6887 14.3402 28.5905 12.3638 11.9708 18.0716 11.24 10.6071 10.2926
threshold=1.0000000180025095e-35 25.500000000000004 5.5000000000000009 1.2071067811865477 7.5000000000000009 0.85948547159005184 0.055718954248366016 23.500000000000004 55.500000000000007 0.59375569373998738 20.554577777777777 0.68465909090909105 0.88675213675213682 0.59498699422706636 2.1180339887498953 48.500000000000007 1.2071067811865477 0.1897690674864588 4.825757575757577 0.88675213675213682 0.7154761904761906 32.692617787855887 0.86607142857142871 0.15285947712418305 37.500000000000007 50.500000000000007 10.500000000000002 54.500000000000007 23.500000000000004 22.500000000000004
decision_type=2 2 2 2 2 2 2 2 2 2 2 2 2 2 2 2 2 2 2 2 2 2 2 2 2 2 2 2 2 2
left_child=1 4 12 6 9 25 20 -8 29 19 11 -7 13 14 -2 16 -14 -12 -11 -1 -4 -15 24 -24 -5 27 -27 -3 -10 -6
right_child=2 5 3 22 8 10 7 -9 28 18 17 -13 15 21 -16 -17 -18 -19 -20 -21 -22 -23 23 -25 -26 26 -28 -29 -30 -31
leaf_value=-0.010880428101754576 -0.0036533470883284881 -0.0080118894668485419 -0.027017285579115154 -0.0031239001270809939 -0.041820283587509936 0.067336952933219854 0.0089629907425236282 0.02272111889205632 -0.017431844119013485 -0.019182757460376801 0.047611669111959048 -0.0039912154157887604 -0.0015005383798508583 0.0043594113871714578 0.039713117228382208 -0.01207187678074686 0.043240666965858626 -0.039339779490159946 -0.032476265041204641 -0.029172233108627255 0.0053361427846128039 0.013353927205585451 -0.026013231018926317 0.037999852414796177 -0.033542205004259244 0.041172171009895876 -0.0033788527532887091 -0.029756915385955814 0.061016244792972255 0.0089122108099649617
leaf_weight=1092.5536403805017 1181.1304024159908 858.39819188416004 37.735331535339355 50.062331929802895 13.204965204000471 11.526644781231878 1229.0472329705954 875.30304403603077 4.559239715337756 1148.2878211289644 51.208827167749405 129.26713995635509 382.19505770504475 5157.2149168103933 29.690615653991699 399.13249990344048 35.51397205889225 5.3684031665325156 303.04426814615726 133.92946283519268 585.9523518383503 497.86614771187305 36.518378525972366 31.579263791441917 103.15855792164803 28.409039214253426 99.500360772013664 63.296792328357697 25.97361946105957 32.648899212479591
leaf_count=4891 5274 3815 166 222 59 50 5387 3818 20 5162 222 572 1697 22775 126 1774 157 24 1364 603 2577 2187 162 140 458 125 438 281 112 142
internal_value=-2.5323e-06 -0.0129665 0.00487648 0.0100411 -0.0168828 -0.00430587 0.0121017 0.0146961 0.0161494 -0.0178326 0.0128739 0.0022468 0.00289211 0.0037941 -0.00255394 -0.00467873 0.00238564 0.0387344 -0.0219824 -0.0129041 0.00333053 0.00515438 -0.0152762 0.00371985 -0.0237207 -0.00755034 0.0067199 -0.00954127 0.0489623 -0.00617173
internal_weight=14633.3 4001.18 10632.1 2949.36 2754.2 1246.98 2728.04 2104.35 76.3867 2677.82 197.371 140.794 7682.74 6865.9 1210.82 816.842 417.709 56.5772 1451.33 1226.48 623.688 5655.08 221.319 68.0976 153.221 1049.6 127.909 921.695 30.5329 45.8539
internal_count=64800 17880 46920 12930 12353 5527 11948 9205 333 12020 868 622 33990 30362 5400 3628 1854 246 6526 5494 2743 24962 982 302 680 4659 563 4096 132 201
is_linear=0
shrinkage=0.05


Tree=6
num_leaves=31
num_cat=0
split_feature=82 46 79 78 79 82 48 79 4 57 60 81 49 41 67 59 18 53 44 43 39 3 49 33 50 80 62 18 46 49
split_gain=335.246 40.1396 40.1343 29.8695 28.1881 43.8563 23.9899 20.7646 20.42 23.2659 20.1691 18.0358 102.15 24.0775 17.5097 17.0105 16.7971 15.4289 14.4316 14.0831 13.9908 13.2157 12.8293 16.1862 13.2284 12.8223 13.8151 13.6382 8.17437 7.58647
threshold=1.0000000180025095e-35 0.1214146860740425 5.5000000000000009 0.59375569373998738 2.5000000000000004 1.2071067811865477 0.25034435261707993 2.5000000000000004 5.9642857142857153 0.38675213675213682 4.0615528128088316 0.87500000000000011 0.0078745039682539698 4.5000000000000009 1.400646071016959 0.19090909090909094 7.5000000000000009 0.18973499361430399 3.5000000000000004 90.500000000000014 48.500000000000007 6.6833333333333345 0.14710800708243169 2.6224465393432701 0.086602564102564117 1.5000000000000002 1.103553390593274 68.500000000000014 0.14826228683606166 0.019292803970223329
decision_type=2 2 2 2 2 2 2 2 2 2 2 2 2 2 2 2 2 2 2 2 2 2 2 2 2 2 2 2 2 2
left_child=2 4 3 7 11 6 -6 29 14 -10 25 13 -13 -2 -5 28 22 -7 -17 21 -9 -18 23 -4 -24 26 -3 -27 -12 -1
right_child=1 10 16 8 5 17 -8 20 9 -11 15 12 -14 -15 -16 18 19 -19 -20 -21 -22 -23 24 -25 -26 27 -28 -29 -30 -31
leaf_value=-0.0280416715100411 0.033707359364429389 0.00012366472013549548 0.045858857036617753 -0.02033873978983651 0.010483718317578532 -0.010936998484682053 -0.010825845613329083 -0.0047305017687311142 -0.027106581853124173 0.013185031219775155 -0.034612095011577713 -0.062634691599209702 0.0025485683327602826 -0.028896396394209378 -0.039002181357378075 -0.0033313840221638625 -0.006402814232578026 0.027101074971207569 0.025398018736547123 0.076751394374877616 0.036783728654316387 -0.066088764097648064 0.043458664099787631 -0.017712213008200615 -0.013548026210242842 0.0044884641197950664 -0.0099015484444185536 -0.0047764010838640264 0.089878516193787727 -0.013629405001156362
leaf_weight=109.83952145278454 80.461376115679741 790.66718430817127 41.402990430593491 1220.85691639781 4778.5264582931995 340.18075548112392 134.82531745731831 591.3919316381216 58.149794459342957 89.795185506343842 0.91777034103870292 61.443919867277145 1603.1194578409195 18.028593480587006 141.65281109511852 78.98727485537529 1035.7159337252378 27.905059725046158 95.561651676893234 4.0464379787445059 20.001152783632278 8.3917763829231244 11.7172474861145 12.382361754775046 49.807265281677246 1480.1437685191631 605.46193705499172 541.4153208732605 9.3229441791772825 588.48452946543694
leaf_count=499 339 3514 184 5518 20865 1513 595 2642 262 401 4 306 7112 81 654 348 4592 122 419 18 89 38 52 55 221 6568 2689 2404 41 2655
internal_value=-3.64243e-06 0.00462571 -0.0123757 -0.0155993 0.00682091 0.00864821 0.00989587 -0.0100535 -0.0203949 -0.00269369 0.000330985 0.00134239 0.0001033 0.0220222 -0.0223099 0.0163757 -0.00455094 -0.00797412 0.0124239 -0.00654934 -0.00330639 -0.00695009 0.0134714 0.0310762 -0.0020898 -0.000539606 -0.00422438 0.00200353 0.0761903 -0.0159403
internal_weight=14630.6 10647 3983.64 2820.17 7044.49 5281.44 4913.35 1309.72 1510.45 147.945 3602.48 1763.05 1664.56 98.49 1362.51 184.79 1163.46 368.086 174.549 1048.15 611.393 1044.11 115.31 53.7854 61.5245 3417.69 1396.13 2021.56 10.2407 698.324
internal_count=64800 46920 17880 12720 30933 23095 21460 5885 6835 663 15987 7838 7418 420 6172 812 5160 1635 767 4648 2731 4630 512 239 273 15175 6203 8972 45 3154
is_linear=0
shrinkage=0.05


Tree=7
num_leaves=31
num_cat=0
split_feature=82 40 46 51 41 77 77 42 82 9 81 9 12 65 18 65 77 19 1 7 9 41 80 40 32 39 17 30 45 45
split_gain=303.483 47.0741 36.089 26.907 26.4465 30.0514 25.0616 24.5756 23.8326 25.066 20.5284 19.2469 20.6594 18.8786 21.3272 19.444 18.7022 20.2446 17.0321 27.2627 16.4936 15.8429 14.9894 14.4144 12.6768 12.4913 21.8406 17.5833 9.31459 7.9612
threshold=1.0000000180025095e-35 25.500000000000004 0.1214146860740425 0.083527131782945754 28.500000000000004 0.76435719168021998 0.85948547159005184 44.500000000000007 1.2071067811865477 91.873456790123456 0.87500000000000011 20.554577777777777 0.68465909090909105 3.5177669529663693 72.500000000000014 4.3013950709106776 0.9910595863606575 17.500000000000004 0.43650793650793657 0.18000000000000002 52.508642232403169 23.500000000000004 2.5000000000000004 31.500000000000004 0.07417582417582419 59.500000000000007 6.5000000000000009 0.44949494949494956 2.5000000000000004 13.500000000000002
decision_type=2 2 2 2 2 2 2 2 2 2 2 2 2 2 2 2 2 2 2 2 2 2 2 2 2 2 2 2 2 2
left_child=1 3 4 21 5 10 25 -7 9 -6 -2 12 -8 16 15 -15 22 -18 19 -5 -20 28 -4 -13 -10 27 -27 -3 -1 -16
right_child=2 6 13 18 8 7 11 -9 24 -11 -12 23 -14 14 29 -17 17 -19 20 -21 -22 -23 -24 -25 -26 26 -28 -29 -30 -31
leaf_value=-0.036788478797234118 0.017869587021922814 -0.0042277841451049845 -0.0033180858015245517 -0.011728569790332486 0.013522600412211677 0.0057777056348158086 0.063288824727599738 0.031649020090361517 0.013907571836837785 -0.026600116541325075 -0.0059836214561048776 0.0074582970610554619 -0.0034575368538825391 0.047228500668600022 -0.050869423882583857 -0.028479659133132246 -0.036067339012158493 0.044576247540305973 -0.013132729619264436 0.015032823053793659 -0.041677813618692369 -0.049797575387917681 0.0034017872346742322 0.05839147785183068 -0.018268747363847048 0.11324721780308783 0.0044473192336472716 -0.019260440882826371 -0.018821497905152432 0.029159059911712523
leaf_weight=79.082402110099792 99.764190450310707 666.49854274094105 2106.2303855270147 282.56869511306286 1880.7273116409779 3947.2514921426773 11.72496025264263 93.141172930598259 43.074500292539597 38.770816072821617 855.6291501969099 24.896176844835281 128.81850908696651 56.15098825097084 10.474905163049696 9.1847502738237363 8.6899959594011289 40.963769733905792 1143.7862270176411 142.1782466173172 52.418232575058937 47.091203555464745 1367.5985200852156 32.169704660773277 99.073389336466789 3.8527242243289939 99.118369176983833 274.94333636760712 977.62108261883259 3.4304549396038047
leaf_count=375 423 2967 9366 1270 8179 17309 50 405 191 169 3814 108 572 242 47 41 39 177 5171 629 236 214 6060 138 443 17 440 1235 4458 15
internal_value=-4.87857e-06 -0.0118101 0.0043882 -0.0154872 0.00646657 0.00449713 -0.00373328 0.00638303 0.011232 0.0126962 -0.00347151 0.0125446 0.0024833 0.000314777 0.0242963 0.0362414 -0.000229876 0.0299305 -0.0113684 -0.00274455 -0.0144215 -0.0215154 -0.000670908 0.0367681 -0.00845452 -0.00682698 0.00961629 -0.00863908 -0.0202044 -0.0301592
internal_weight=14626.9 3966.77 10660.2 2724.75 7057.43 4995.79 1242.02 4040.39 2061.65 1919.5 955.393 197.609 140.543 3602.72 79.2411 65.3357 3523.48 49.6538 1620.95 424.747 1196.2 1103.79 3473.83 57.0659 142.148 1044.41 102.971 941.442 1056.7 13.9054
internal_count=64800 17880 46920 12353 30933 21951 5527 17714 8982 8348 4237 868 622 15987 345 283 15642 216 7306 1899 5407 5047 15426 246 634 4659 457 4202 4833 62
is_linear=0
shrinkage=0.05


Tree=8
num_leaves=31
num_cat=0
split_feature=82 40 46 5 51 41 77 77 1 47 58 7 81 9 66 77 19 9 2 16 77 80 46 46 39 17 30 41 58 49
split_gain=274.701 43.0436 32.4677 28.4246 26.5446 23.7056 27.0612 22.6789 21.9006 21.8664 21.6833 26.3622 18.5098 18.2287 17.4806 17.5421 17.4415 17.1837 18.7194 14.5238 14.0796 13.7654 12.3778 16.4632 11.3728 19.5674 16.0529 10.6846 9.83537 9.31516
threshold=1.0000000180025095e-35 25.500000000000004 0.1214146860740425 0.7010151494202076 0.083527131782945754 28.500000000000004 0.76435719168021998 0.85948547159005184 0.43650793650793657 0.30715460526315796 0.29285714285714287 0.10000000000000002 0.87500000000000011 46.045491358024712 1.0352435830037601 0.9910595863606575 17.500000000000004 20.554577777777777 2.3925039399397834 32.500000000000007 0.63654143867647139 1.5000000000000002 0.094203554109668811 0.12028054756197055 59.500000000000007 6.5000000000000009 0.44949494949494956 14.500000000000002 0.095454545454545472 0.16157731157731162
decision_type=2 2 2 2 2 2 2 2 2 2 2 2 2 2 2 2 2 2 2 2 2 2 2 2 2 2 2 2 2 2
left_child=1 3 5 4 27 6 12 24 -6 -8 11 -7 -2 -12 15 21 -17 18 -9 -19 -16 -4 29 -24 26 -26 -3 -1 -22 -5
right_child=2 7 14 22 8 10 9 17 -10 -11 13 -13 -14 -15 20 16 -18 19 -20 -21 28 -23 23 -25 25 -27 -28 -29 -30 -31
leaf_value=-0.017753820164094856 0.016916097741595432 -0.0040222649663908131 -0.0047914326093774617 -0.04610883159880004 0.0010436792290259387 -0.018030380115817517 0.0058180062901829858 0.0595966520093607 -0.012744256697630555 0.064339807477636832 0.0056294796138340215 0.013674442656203429 -0.0056958316744172635 -0.024084108094626556 0.062205607117963219 -0.033925030134731103 0.041909703699642309 -0.0067065653481387308 -0.003341595936554038 0.049426843332976304 0.045501642233239159 0.001706117145097412 0.031869650392832863 -0.033218378510492544 0.1059812136303524 0.004221213145123374 -0.018421902532693948 -0.033429442098157978 0.0067790675151924162 -0.00011244852217098063
leaf_weight=884.72245356440544 100.16384866833687 665.60047748684883 1374.9379649460316 119.20137925446033 383.73494073748589 67.134704351425171 4032.8728318810463 11.993781238794325 1143.940289452672 15.053827315568922 168.3836558163166 1759.3569268286228 854.01085177063942 73.186307430267334 13.867794767022131 8.3665401190519315 41.442377015948296 15.189096748828886 128.58379635214806 42.390212163329124 17.611393213272095 1997.7305629402399 14.269742250442503 25.70051009953022 3.976196661591529 99.256127446889877 273.17697371542454 126.02426344156265 148.81050719320774 12.362426504492758
leaf_count=4066 423 2967 6125 561 1715 292 17648 51 5194 66 732 7639 3814 319 61 38 177 65 571 181 76 8858 65 118 17 440 1235 577 652 57
internal_value=-5.48801e-06 -0.0112688 0.00416334 -0.0147993 -0.0134543 0.00613174 0.00426701 -0.00354431 -0.00927919 0.00605271 0.0106354 0.0124971 -0.0033017 -0.00341415 0.000298473 -0.000501437 0.0286561 0.0119124 0.00237586 0.0346721 0.0154299 -0.000941896 -0.034481 -0.00964862 -0.00649708 0.00916785 -0.00823291 -0.0197444 0.011154 -0.0418579
internal_weight=14623.1 3950.12 10672.9 2709.96 2538.42 7070.16 5002.1 1240.17 1527.68 4047.93 2068.06 1826.49 954.175 241.57 3602.77 3422.48 49.8089 198.157 140.578 57.5793 180.29 3372.67 171.534 39.9703 1042.01 103.232 938.777 1010.75 166.422 131.564
internal_count=64800 17880 46920 12353 11552 30933 21951 5527 6909 17714 8982 7931 4237 1051 15987 15198 215 868 622 246 789 14983 801 183 4659 457 4202 4643 728 618
is_linear=0
shrinkage=0.05


Tree=9
num_leaves=31
num_cat=0
split_feature=82 40 79 82 79 32 52 5 77 53 82 78 17 11 43 5 59 66 58 77 23 41 53 2 41 78 42 39 77 66
split_gain=248.665 39.3337 31.5827 49.8783 27.7033 23.6685 27.4297 21.4644 20.5074 19.2351 26.647 17.4002 16.6871 24.8064 16.232 16.1094 16.0999 15.5952 19.2712 14.7247 14.6795 13.0762 12.5305 12.0611 10.9915 10.7353 23.6463 10.6065 10.4832 9.83964
threshold=1.0000000180025095e-35 25.500000000000004 5.5000000000000009 1.2071067811865477 7.5000000000000009 0.36931818181818188 0.067725134408602158 0.7010151494202076 0.85948547159005184 0.010471491228070177 1.2071067811865477 0.59375569373998738 93.500000000000014 1.0000000180025095e-35 11.500000000000002 0.6639440900788417 0.19090909090909094 0.34075627682287973 0.11805555555555557 0.89804097588684284 5.5000000000000009 14.500000000000002 0.12920918367346942 2.3925039399397834 44.500000000000007 0.5971872335669538 12.500000000000002 92.500000000000014 0.81099937341018979 0.46916507127860235
decision_type=2 2 2 2 2 2 2 2 2 2 2 2 2 2 2 2 2 2 2 2 2 2 2 2 2 2 2 2 2 2
left_child=1 4 9 5 7 6 -4 11 25 10 20 -1 19 -14 23 -16 -7 18 -5 -11 -2 -19 24 -10 -6 26 -3 -27 -12 -24
right_child=2 8 3 17 22 16 -8 -9 14 12 28 -13 13 -15 15 -17 -18 21 -20 -21 -22 -23 29 -25 -26 27 -28 -29 -30 -31
leaf_value=-0.0092214736586333692 -0.014244238790032332 -0.018176503922030889 -6.7193929982407454e-05 -0.01002925185632395 -0.018222517379190638 0.021278447280043356 0.011793253414271962 -0.032625094228868667 0.055186376849508036 0.0011179786571522176 0.033528427536449752 -0.017697053048889955 0.02524550662479837 0.0027167692297388221 0.0053544094036915239 0.041706479318358178 0.076796190213361773 0.017319034831255478 0.057757031962625674 0.0072122319290360871 0.063228608144655071 -0.041042490625528748 0.013102345903483631 -0.012975262685858661 0.029756378807429623 -0.0092458960850030341 0.016956607574422366 0.04820163699398107 -0.01927686470952332 0.073263591013263421
leaf_weight=1122.6114723980427 364.86780643463135 74.607478439807892 663.8930112272501 133.95804280042648 30.635635316371918 254.21773417294025 1824.7805278599262 162.1468231678009 6.1390804797410956 5561.8067606389523 46.708770528435707 1334.1624522507191 200.35917781293392 312.95275156199932 65.652887389063835 57.041040271520615 13.062170863151549 10.520587995648382 10.361699938774107 1206.1279779821634 5.2249248623847953 65.231421813368797 15.537712767720224 69.821195214986801 18.16997417807579 828.43132711946964 129.50953103601933 7.1097933650016776 10.874869853258131 12.281397163867949
leaf_count=5117 1649 337 2898 597 134 1102 7891 769 26 24497 197 6134 879 1383 288 246 57 47 46 5314 23 292 67 308 79 3712 579 31 48 53
internal_value=-5.42978e-06 -0.0107514 0.00395108 0.00832599 -0.0141399 0.0101571 0.00862853 -0.015009 -0.00336604 0.00226063 -0.00802989 -0.0138315 0.00286677 0.011552 0.0113077 0.0224956 0.0242864 -0.0145251 -0.00476405 0.00220569 -0.0129696 -0.0327519 0.0153131 -0.006756 -2.11201e-05 -0.00618283 0.0040646 -0.00869405 0.0233118 0.041456
internal_weight=14618.8 3933.86 10684.9 2976.03 2695.55 2755.95 2488.67 2618.92 1238.31 7708.92 427.676 2456.77 7281.25 513.312 198.654 122.694 267.28 220.072 144.32 6767.93 370.093 75.752 76.6247 75.9603 48.8056 1039.66 204.117 835.541 57.5836 27.8191
internal_count=64800 17880 46920 12930 12353 11948 10789 12020 5527 33990 1917 11251 32073 2262 868 534 1159 982 643 29811 1672 339 333 334 213 4659 916 3743 245 120
is_linear=0
shrinkage=0.05


Tree=10
num_leaves=30
num_cat=0
split_feature=42 46 9 0 46 0 12 46 42 47 18 40 43 2 1 78 52 65 41 49 2 32 33 2 3 80 3 41 52
split_gain=57.7034 27.1908 25.6512 22.3232 21.5192 65.9395 78.6226 20.5996 20.5411 20.4998 20.9124 19.8982 18.1322 16.0777 15.6836 15.2614 14.4776 14.8893 14.2776 11.1168 10.051 8.11208 7.89801 7.53184 7.45252 8.40787 6.5873 5.99302 2.92416
threshold=16.500000000000004 0.30393874236214369 82.260800000000003 1.0000000180025095e-35 0.029291611874803117 1.0000000180025095e-35 0.29166666666666674 0.1214146860740425 14.500000000000002 0.30715460526315796 1.5000000000000002 61.500000000000007 8.5000000000000018 3.7267620574766123 0.39230769230769241 0.71322980785105383 0.40657327586206898 3.4068774446576202 62.500000000000007 0.12917663476874006 3.7428546939614944 0.63333333333333341 2.7374880223322728 2.6467183647662429 3.442307692307693 2.5000000000000004 5.4365079365079376 1.0000000180025095e-35 0.13753306878306881
decision_type=2 2 2 2 2 2 2 2 2 2 2 2 2 2 2 2 2 2 2 2 2 2 2 2 2 2 2 2 2
left_child=4 2 3 21 5 19 -7 9 -8 10 -6 -5 13 -9 -14 22 17 23 -19 28 -17 -2 -4 -3 27 -26 -11 -18 -1
right_child=1 16 15 11 7 6 8 12 -10 26 -12 -13 14 -15 -16 20 24 18 -20 -21 -22 -23 -24 -25 25 -27 -28 -29 -30
leaf_value=0.03140591813934724 -0.014243779127277601 -0.0025610325178190584 -0.010865756389349402 0.004309870775519785 -0.029394394056686493 -0.066072603911442526 -0.0036395113180368562 -0.00073384171982329998 -0.028332200104582296 -0.0004539462879010294 0.00063833734099655586 0.024965744334907839 0.025544346484353577 -0.010569404288633868 -0.012068905498893723 -0.051593215675873494 -0.047040402096694425 -0.0082520352656042344 0.070706056625946492 -0.05612249515145476 0.02022132091017189 0.078784132814355326 0.04050071877236594 -0.034171959098167247 0.10571457913665108 -0.033187841169299431 0.072018723300921558 0.013969909326922707 -0.03376086532271691
leaf_weight=85.862441331148148 179.31403140723705 23.434882566332817 76.492081165313721 6409.267379373312 57.941860541701317 75.819249734282494 289.75673654675484 1987.2704218924046 118.30302201211452 3.9212042838335064 3485.1978421956301 117.91889514029026 27.588256195187569 524.8517119884491 913.36976513266563 37.030846312642097 3.7347852438688305 24.594639331102375 6.37376445531845 2.9516290575265876 4.9397849887609473 1.3789807260036457 7.2720794677734366 107.41877256333828 2.9501245617866512 0.89739927649497975 12.154122695326803 25.559908106923103 0.90537539124488731
leaf_count=361 789 105 339 28157 259 401 1286 8915 522 17 15472 512 122 2367 4113 165 17 108 27 13 22 6 32 484 13 4 53 115 4
internal_value=-4.74414e-06 0.00325866 0.00378535 0.00420642 -0.00302909 -0.012334 -0.019642 -0.00226559 -0.0108623 0.000402481 0.000137638 0.00468757 -0.00501644 -0.00279414 -0.0109349 -0.0184954 -0.0151016 -0.0212643 0.00954574 0.0268067 -0.0427507 -0.0130766 -0.00592214 -0.028611 0.014584 0.0721224 0.0550566 0.00473064 0.0302921
internal_weight=14614.5 7028.58 6833.61 6707.88 7585.89 573.598 483.879 7012.3 408.06 3559.22 3543.14 6527.19 3453.08 2512.12 940.958 125.735 194.964 161.822 30.9684 89.7194 41.9706 180.693 83.7642 130.854 33.1422 3.84752 16.0753 29.2947 86.7678
internal_count=64800 30895 30022 29464 33905 2587 2209 31318 1808 15801 15731 28669 15517 11282 4235 558 873 724 135 378 187 795 371 589 149 17 70 132 365
is_linear=0
shrinkage=0.05


Tree=11
num_leaves=31
num_cat=0
split_feature=82 42 79 82 52 79 9 32 52 12 53 82 54 43 17 9 42 18 42 19 1 40 46 54 53 53 78 17 16 18
split_gain=224.408 35.0201 26.8301 44.3697 24.3554 22.0871 26.6389 21.468 27.0463 17.3459 20.9265 22.5129 16.7917 16.2676 23.9831 20.2719 15.6547 12.332 12.8851 11.6174 11.2587 10.8242 18.4068 10.6372 10.0781 11.1515 9.68405 8.86467 8.68055 7.20482
threshold=1.0000000180025095e-35 12.500000000000002 5.5000000000000009 1.2071067811865477 0.02046049188906332 7.5000000000000009 45.628346178355123 0.26136363636363641 0.067725134408602158 0.88675213675213682 0.010471491228070177 2.9142135623730954 0.34834956709956716 1.0000000180025095e-35 6.5000000000000009 9.5359999999999996 25.500000000000004 76.500000000000014 57.500000000000007 78.500000000000014 0.27619047619047626 1.5000000000000002 0.41758060789783741 0.23979166666666671 0.14712248535777953 0.15009881422924903 0.73986220678868919 87.500000000000014 92.500000000000014 6.5000000000000009
decision_type=2 2 2 2 2 2 2 2 2 2 2 2 2 2 2 2 2 2 2 2 2 2 2 2 2 2 2 2 2 2
left_child=1 19 9 7 26 6 -6 8 -4 10 11 -2 -12 14 -11 -15 -7 20 -19 21 -5 27 -23 -9 29 -26 28 -1 -3 -21
right_child=2 4 3 17 5 16 -8 23 -10 13 12 -13 -14 15 -16 -17 -18 18 -20 24 -22 22 -24 -25 25 -27 -28 -29 -30 -31
leaf_value=-0.029509493653907645 -0.01145049762633559 0.039457572987948872 -0.0013319007640715695 0.037405079235130874 -0.0070842581402642034 -0.021497171076191826 -0.026701758451546011 0.021217561766650937 0.010826281074752548 0.070462550505601546 0.0040324654348144612 0.044150255804257153 -0.013472037294776472 -0.01968522511510291 0.0036100050115589668 -0.0015966055442867859 0.0096717676121933216 -0.00084469724077400332 0.079736178728236407 -0.0031440977507422325 -0.023032533221785403 -0.012494559617082131 0.045951539335230773 -0.016812524336617393 0.053574327709527386 -0.016084465014413563 -0.031812279113968889 0.0022480348189322322 -0.034502740732007875 -0.034101133073354405
leaf_weight=154.51940070092678 349.98263473808765 45.78897151350975 624.55916249752045 7.1497792303562155 1708.4566021561623 46.179013296961784 192.09705358743668 423.3431299328804 1699.0309840291739 14.543735235929487 6386.8159209340811 18.19741502404213 138.92856529355049 230.37510553002357 100.47492580115795 471.28967262804508 273.48268358409405 45.035676047205925 4.5568705052137366 21.530730992555618 162.19916859269142 1112.5051055848598 12.642552226781843 18.361573487520218 5.0294658541679373 124.56743562221527 5.5199823081493369 25.095439821481705 3.5039561688899985 186.25762511789799
leaf_count=740 1589 206 2727 32 7743 205 875 1822 7319 65 28080 74 619 1030 450 2083 1197 202 20 100 728 5128 59 80 23 579 25 121 16 863
internal_value=-5.27389e-06 -0.0102425 0.00374445 0.0077699 -0.00621802 -0.00703702 -0.00908271 0.00948736 0.00755696 0.00218502 0.0030018 -0.00857672 0.00365703 -0.00469883 0.0126409 -0.00756226 0.00510045 -0.0138439 0.00789044 -0.0158079 -0.020247 -0.0136407 -0.0117932 0.019591 -0.0241092 -0.0129533 0.0263983 -0.0250568 0.0335192 -0.0309478
internal_weight=14612 3917.18 10694.8 2984.24 2275.03 2220.22 1900.55 2765.29 2323.59 7710.61 6893.92 368.18 6525.74 816.683 115.019 701.665 319.662 218.941 49.5925 1642.15 169.349 1304.76 1125.15 441.705 337.385 129.597 54.8129 179.615 49.2929 207.788
internal_count=64800 17880 46920 12930 10267 10020 8618 11948 10046 33990 30362 1663 28699 3628 515 3113 1402 982 222 7613 760 6048 5187 1902 1565 602 247 861 222 963
is_linear=0
shrinkage=0.05


Tree=12
num_leaves=31
num_cat=0
split_feature=82 40 45 42 46 82 9 5 79 38 33 48 82 82 18 18 78 5 2 29 78 38 46 33 47 46 45 5 76 18
split_gain=203.143 33.7954 27.5012 23.7644 32.4891 28.3198 25.3452 23.5375 29.8586 18.9146 20.7872 20.1026 20.4014 17.6882 17.3979 16.6476 15.9631 15.573 15.0684 13.658 13.1552 13.0585 11.7176 15.4705 11.5085 11.0356 10.8413 10.6327 21.707 14.9888
threshold=1.0000000180025095e-35 25.500000000000004 24.500000000000004 16.500000000000004 0.028796161103271937 1.2071067811865477 87.503086419753103 0.7010151494202076 7.5000000000000009 34.500000000000007 1.019272337189735 0.016216690042075741 501.08113883008423 1.2071067811865477 55.500000000000007 1.0000000180025095e-35 0.59375569373998738 0.71599255225635383 2.5629844516881612 0.10555555555555557 0.60818803761173879 30.500000000000004 0.094203554109668811 0.11307141443647729 0.040089285714285723 0.017320044420980066 9.5000000000000018 0.66143741977888049 1.0000000180025095e-35 47.500000000000007
decision_type=2 2 2 2 2 2 2 2 2 2 2 2 2 2 2 2 2 2 2 2 2 2 2 2 2 2 2 2 2 2
left_child=1 7 9 4 20 6 -5 8 16 11 25 13 -13 -2 -10 -6 -1 -12 19 26 -4 -7 -9 -24 -21 -11 -3 28 -20 -29
right_child=2 18 3 5 15 21 -8 22 14 10 17 12 -14 -15 -16 -17 -18 -19 27 24 -22 -23 23 -25 -26 -27 -28 29 -30 -31
leaf_value=-0.0082164502682364176 -0.0075206356127890134 0.021383479433205541 -0.0086054704206833497 0.015640590735296916 -0.04591698041223341 0.0070029421451139719 -0.023323265903789483 -0.038567273251430584 -0.00083243256902534955 0.048148399485310349 0.003319187690182468 0.0038184708779363929 -0.045625385633078698 0.016740771319694321 0.049141257169633794 0.0055070168696868538 -0.016370836788069158 0.083594774111519762 -0.028918337172532418 -0.056028134848215741 -0.051749097048699635 -0.029730545772069041 0.069223817545871619 -0.019218319836504627 0.030370553550245712 -0.014052641440639025 -0.046619291595399723 0.011027620365981941 -0.0045758944616373252 -0.0072664154700579041
leaf_weight=1113.9787785261869 691.9506024569273 9.3149749338626879 38.255983382463455 1245.1245478689671 14.87649931013584 42.306873306632042 42.226186901330948 126.15349943935871 40.85821196436882 6.267685815691947 237.86806517839432 6091.7710475176573 19.925090819597244 83.208248674869537 29.067699044942856 1691.0361625701189 1319.2214847803116 5.2117794007062903 108.00377452373505 3.1309133470058432 33.187207385897636 54.006555274128914 4.7457152754068366 34.319335728883743 71.87324945628643 408.00337141752243 12.733006924390791 213.16643100976944 582.41654448211193 233.46739229559898
leaf_count=5117 3107 41 166 5347 66 187 185 618 178 27 1033 26704 89 358 123 7440 6134 22 490 14 145 244 22 161 320 1800 58 949 2617 1038
internal_value=-5.70065e-06 -0.00977041 0.00355401 0.00746894 0.00363656 0.012382 0.0143416 -0.0129345 -0.0117153 0.00191222 -0.00618292 0.00268641 0.00364902 -0.00489168 0.0202707 0.005029 -0.0126445 0.00539627 -0.0029202 0.0158803 -0.0291535 -0.0136374 -0.0311939 -0.00688974 0.0260085 -0.0129859 -0.0179909 -0.00454183 -0.00842738 0.0014588
internal_weight=14607.7 3902.45 10705.2 3161.02 1777.36 1383.66 1287.35 2668.34 2503.13 7544.21 657.351 6886.85 6111.7 775.159 69.9259 1705.91 2433.2 243.08 1234.11 97.0521 71.4432 96.3134 165.219 39.0651 75.0042 414.271 22.048 1137.05 690.42 446.634
internal_count=64800 17880 46920 13780 7817 5963 5532 12353 11552 33140 2882 30258 26793 3465 301 7506 11251 1055 5527 433 311 431 801 183 334 1827 99 5094 3107 1987
is_linear=0
shrinkage=0.05


Tree=13
num_leaves=31
num_cat=0
split_feature=82 42 45 12 52 49 39 81 12 5 47 38 78 12 79 62 82 44 62 52 44 18 51 33 17 51 54 33 78 16
split_gain=183.861 30.9915 24.6988 26.1974 21.7723 20.301 22.2324 21.4528 72.0509 27.2131 21.2807 20.0343 19.2175 18.789 19.5101 17.8054 16.5334 13.2735 12.8005 12.198 11.7562 10.1294 13.4461 18.6538 13.1222 10.9942 16.4719 15.1764 8.73377 7.76131
threshold=1.0000000180025095e-35 12.500000000000002 24.500000000000004 0.92916666666666681 0.02046049188906332 0.025044802867383517 28.500000000000004 0.87500000000000011 0.35416666666666674 0.59129372134404201 0.18191786283891551 13.500000000000002 0.75369027288071777 0.9084821428571429 7.5000000000000009 1.7661237755614951 501.08113883008423 9.5000000000000018 1.7661237755614951 0.13464775964775968 21.500000000000004 95.500000000000014 0.025105042016806727 0.049140734416019995 16.500000000000004 0.016736694677871151 0.031180555555555559 0.15660187698201536 0.73986220678868919 92.500000000000014
decision_type=2 2 2 2 2 2 2 2 2 2 2 2 2 2 2 2 2 2 2 2 2 2 2 2 2 2 2 2 2 2
left_child=1 21 5 12 28 7 16 9 -9 -2 -8 20 15 14 -6 -4 -7 -13 -15 -14 -5 22 24 -24 -1 27 -27 -23 29 -3
right_child=2 4 3 11 13 6 10 8 -10 -11 -12 17 19 18 -16 -17 -18 -19 -20 -21 -22 25 23 -25 -26 26 -28 -29 -30 -31
leaf_value=-0.040737254723890504 -0.030934496483106089 0.03739685665480226 0.0084717673609561086 0.062884193782985306 -0.0072917587021238978 0.0043786206582183598 0.002436035144643911 -0.0622050740943072 -0.0038129796925126555 0.029295247365955575 -0.010496854432284158 0.0088133129037582698 -0.0033289980261377895 -0.033158592325272747 0.0062865690665469785 0.032053632446651208 -0.043075033034035509 -0.025011794676602896 0.026532302302403377 -0.046270801644711548 -0.033903519552506652 -0.028935482812807264 0.021189844844748243 -0.013376414663552381 -0.018441036655670647 0.089448203676309124 -0.021108428505303867 0.073674264082380717 -0.030460298371490582 -0.032981760971809375
leaf_weight=79.142446711659431 23.195836797356606 46.279399544000626 2738.9230539947748 12.122367262840269 1799.2879359871149 5309.6057777702808 744.31036248803139 55.810248449444771 761.29627065360546 82.896528109908104 553.50592164695263 37.151199117302895 154.50665335357189 90.521847501397133 308.93542341887951 81.789494186639786 17.408162668347359 121.80069063603878 9.1224978715181333 17.602407619357109 3.3449088633060446 4.5424567013978949 39.578421354293823 1036.7558675408363 423.23277117311954 2.803400099277499 28.425671607255936 10.360146313905714 5.4409381896257392 3.4358479976654044
leaf_count=379 104 206 11892 54 8206 23227 3248 299 3388 344 2451 166 677 419 1353 358 79 541 42 77 15 23 184 4830 2004 13 132 48 25 16
internal_value=-6.81226e-06 -0.00931979 0.00337234 0.00707804 -0.00552971 0.001816 0.00278459 -0.00512468 -0.00787857 0.0159141 -0.0030797 -0.0116997 0.0081776 -0.00631092 -0.00529761 0.00916844 0.00421455 -0.0170691 -0.0274348 -0.00799167 0.0408618 -0.0145888 -0.0152653 -0.0120822 -0.0220374 0.00828857 -0.00856129 0.0422306 0.0252084 0.0318799
internal_weight=14603.1 3887.87 10715.3 3167.24 2263.02 7548.03 6624.83 923.199 817.107 106.092 1297.82 174.419 2992.82 2207.87 2108.22 2820.71 5327.01 158.952 99.6443 172.109 15.4673 1624.84 1578.71 1076.33 502.375 46.1317 31.2291 14.9026 55.1562 49.7152
internal_count=64800 17880 46920 13780 10267 33140 29005 4135 3687 448 5699 776 13004 10020 9559 12250 23306 707 461 754 69 7613 7397 5014 2383 216 145 71 247 222
is_linear=0
shrinkage=0.05


Tree=14
num_leaves=31
num_cat=0
split_feature=82 40 79 82 5 79 9 45 77 18 51 66 46 41 9 2 17 11 33 77 52 44 17 41 38 78 42 16 49 38
split_gain=166.347 29.3384 22.4457 37.7049 21.6145 25.6504 20.2733 26.5739 18.4592 15.4839 15.0582 14.5989 18.081 14.4424 14.4149 15.3428 13.4183 22.3731 27.0371 16.365 19.5571 15.6778 13.334 12.0824 11.289 10.2129 19.7068 11.9308 9.7159 9.63366
threshold=1.0000000180025095e-35 25.500000000000004 5.5000000000000009 1.2071067811865477 0.7010151494202076 7.5000000000000009 39.81803456790125 26.500000000000004 0.85948547159005184 55.500000000000007 0.083527131782945754 0.34075627682287973 0.041727625136216757 12.500000000000002 20.554577777777777 2.3925039399397834 93.500000000000014 1.0000000180025095e-35 0.40887496664403844 0.81628173769841095 0.19970238095238099 12.500000000000002 72.500000000000014 14.500000000000002 19.500000000000004 0.5971872335669538 12.500000000000002 3.5000000000000004 0.031180555555555559 14.500000000000002
decision_type=2 2 2 2 2 2 2 2 2 2 2 2 2 2 2 2 2 2 2 2 2 2 2 2 2 2 2 2 2 2
left_child=1 4 16 6 5 10 7 -4 25 -7 -1 12 -5 -8 15 -10 19 28 -19 20 -2 -21 -16 -13 29 26 -3 -27 -18 -6
right_child=2 8 3 11 24 9 13 -9 14 -11 -12 23 -14 -15 22 -17 17 18 -20 21 -22 -23 -24 -25 -26 27 -28 -29 -30 -31
leaf_value=-0.016346851397405059 0.00036999733869461831 -0.015758378928241695 0.0071046474821317238 -0.020684411616005316 -0.027210357193773672 -0.0010761500637944915 0.028586912410539705 0.019509915966976737 0.053873057970954055 0.045885355375662649 -0.0082775669530777973 0.017074835079575978 0.014622334509456041 0.00021214765892467588 0.018148811741463215 -0.0026157163169303714 0.0031806803729168172 0.031135885076063425 -0.0057608717197605418 0.0072507987347306185 -0.0097896809901579802 0.00085856480323167218 0.074630439176315747 -0.039034463696583976 -0.046751099736365577 0.031545081753215763 0.016498107617981567 -0.0085641828179195672 0.027791079462434434 0.0091337308006748941
leaf_weight=978.56487463414669 2519.4917439222336 73.148533016443253 1308.9675386548042 74.229976177215576 79.356742590665817 40.915493845939636 46.617266178131104 646.34389144182205 12.249316632747648 29.41959074139595 1432.8789625167847 10.536177009344099 68.935167595744133 777.46248629689217 44.899427071213722 127.89228388667107 54.062442272901535 59.902516573667526 267.53562749922276 1543.8418304622173 582.10927240550518 2536.8235914558172 13.237203821539877 63.988580927252769 59.826132223010063 17.962002471089363 129.8310053050518 811.06882752478123 163.23676562309265 22.800783067941666
leaf_count=4632 11134 337 5643 335 404 178 203 2755 51 123 6619 47 308 3347 190 571 235 264 1181 6797 2578 11093 56 292 288 81 579 3662 708 109
internal_value=-7.92464e-06 -0.00888719 0.00319975 0.00687259 -0.0118551 -0.0106881 0.00844409 0.0112157 -0.00250092 0.0188646 -0.0115596 -0.0131158 -0.00366574 0.00185604 0.0114272 0.00263307 0.00177382 0.00933362 0.00104816 0.00119853 -0.0015377 0.00327935 0.0321383 -0.0309146 -0.0295296 -0.00519021 0.00482893 -0.00765218 0.0217337 -0.0190403
internal_weight=14598.1 3874.05 10724.1 2997.08 2643.76 2481.78 2779.39 1955.31 1230.29 70.3351 2411.44 217.69 143.165 824.08 198.278 140.142 7727 544.737 327.438 7182.27 3101.6 4080.67 58.1366 74.5248 161.984 1032.01 202.98 829.031 217.299 102.158
internal_count=64800 17880 46920 12930 12353 11552 11948 8398 5527 301 11251 982 643 3550 868 622 33990 2388 1445 31602 13712 17890 246 339 801 4659 916 3743 943 513
is_linear=0
shrinkage=0.05


Tree=15
num_leaves=31
num_cat=0
split_feature=82 40 51 79 82 43 82 64 8 3 50 18 43 82 3 31 67 5 19 46 9 18 18 50 54 58 33 53 54 31
split_gain=150.505 27.8505 21.9147 21.0061 31.8676 20.4857 17.1764 19.7157 18.2155 17.1746 18.1791 16.4943 15.5476 15.333 14.7786 12.8719 12.5791 12.1328 14.2548 12.0852 11.9353 11.4281 10.6848 10.5329 9.99548 8.15132 8.11281 7.76362 7.22869 6.54394
threshold=1.0000000180025095e-35 35.500000000000007 0.025105042016806727 2.5000000000000004 1.7071067811865477 10.500000000000002 1.2071067811865477 1.8838834764831847 3.5000000000000004 2.0714285714285716 0.23342490842490846 1.0000000180025095e-35 88.500000000000014 1.2071067811865477 2.5166666666666671 0.77500000000000013 1.0188278891987774 0.69382959766418029 31.500000000000004 0.045636917581927956 32.991536448290582 59.500000000000007 12.500000000000002 0.017937580437580442 0.017660818713450297 0.324561403508772 2.8502643607796192 0.3615900383141763 0.27988095238095245 0.48076923076923084
decision_type=2 2 2 2 2 2 2 2 2 2 2 2 2 2 2 2 2 2 2 2 2 2 2 2 2 2 2 2 2 2
left_child=1 2 5 6 9 21 7 11 24 10 -5 -2 15 -11 22 -4 19 20 -19 -6 -16 -1 -3 -18 -8 -10 -24 -9 -7 -14
right_child=3 14 12 4 16 28 8 27 25 13 -12 -13 29 -15 17 -17 23 18 -20 -21 -22 -23 26 -25 -26 -27 -28 -29 -30 -31
leaf_value=-0.023473109506314805 -0.039253133319113891 -0.033884653802703169 -0.0080110421492251473 -0.0011566960863457535 -0.040407590032015689 -0.057570753349247439 0.036065314557474568 -0.022799061551031709 -0.024010718454534327 0.0059819272758919809 -0.039431145672348795 1.0425803726648235e-05 0.1055819203271961 -0.0041103825173218695 0.0037260428421267543 -0.024455698864812601 0.038097107037161806 0.05124558185510121 0.0034814245165879069 0.0070183232435167969 -0.012200805824184903 -0.0067038277155869923 0.071661735281781214 -0.060757412663327404 0.01148685914891622 0.039391062434811656 -0.0015835512795539016 0.056561859717289567 -0.0063264263313465244 0.0017390033105794723
leaf_weight=242.95583707094193 25.969502195715904 3.3475867509841946 2680.6000882536173 121.06903894245625 20.753875911235809 43.865691050887108 51.888511911034584 118.03863146901131 42.632203087210655 6408.3471593856812 40.878290414810181 3229.3651219755411 3.2003269791603079 398.54739286005497 283.63018834590912 124.1860748976469 2.2504516690969494 22.39949432015419 48.249110117554665 34.156222239136696 199.24923419952393 177.68093958497047 14.678267002105715 26.785320714116096 205.19930750131607 4.7717742621898642 4.7514556944370261 2.2011277973651877 8.707665413618086 2.5845063179731369
leaf_count=1176 116 15 12397 534 95 209 217 571 189 27717 182 14303 14 1777 1272 588 10 98 213 152 898 860 65 122 904 21 21 10 42 12
internal_value=-7.61214e-06 -0.00847373 -0.0102527 0.00303728 0.00463493 -0.0202096 -2.36689e-05 -0.00105221 0.0113284 0.00500592 -0.0110312 -0.000313223 -0.00856788 0.00538977 0.00165429 -0.00874939 -0.0258001 0 0.0191989 -0.0112195 -0.00284711 -0.0164342 0.040253 -0.0519158 0.0165875 -0.0168433 0.0543044 -0.0208505 -0.0494531 0.0670189
internal_weight=14592.9 3860.09 3283.78 10732.9 7052.79 473.21 3680.07 3375.57 304.492 6968.84 161.947 3255.33 2810.57 6806.89 576.305 2804.79 83.9459 553.528 70.6486 54.9101 482.879 420.637 22.7773 29.0358 257.088 47.404 19.4297 120.24 52.5734 5.78483
internal_count=64800 17880 15298 46920 30589 2287 16331 15000 1331 30210 716 14419 13011 29494 2582 12985 379 2481 311 247 2170 2036 101 132 1121 210 86 581 251 26
is_linear=0
shrinkage=0.05


Tree=16
num_leaves=31
num_cat=0
split_feature=82 40 12 45 77 33 51 43 43 17 78 42 18 2 55 38 18 38 39 46 18 82 42 29 53 42 33 45 48 12
split_gain=136.144 25.3278 20.6609 20.9854 24.5283 23.6939 20.1705 19.231 15.6922 15.2971 15.1806 20.1724 15.0513 14.3124 20.0607 16.9343 13.8046 20.4318 16.1832 13.8423 16.5129 14.8304 12.9848 12.4288 15.6129 16.0738 14.0766 13.555 12.3927 10.0282
threshold=1.0000000180025095e-35 35.500000000000007 0.90238095238095251 24.500000000000004 0.76435719168021998 3.0344438283977784 0.025105042016806727 10.500000000000002 3.5000000000000004 16.500000000000004 0.60119140179661767 38.500000000000007 37.500000000000007 3.02078850826569 1.0000000180025095e-35 31.500000000000004 51.500000000000007 40.500000000000007 9.5000000000000018 0.049135605045755155 9.5000000000000018 1.2071067811865477 52.500000000000007 0.21111111111111114 0.14448784722222224 51.500000000000007 2.6779450445889932 18.500000000000004 0.18108796098228805 0.74216524216524227
decision_type=2 2 2 2 2 2 2 2 2 2 2 2 2 2 2 2 2 2 2 2 2 2 2 2 2 2 2 2 2 2
left_child=1 6 3 13 8 -6 7 9 -5 -1 12 -12 -8 14 -2 -15 19 18 -18 20 -4 -21 -19 26 27 -26 28 -25 -3 -28
right_child=2 23 16 4 5 -7 10 -9 -10 -11 11 -13 -14 15 -16 -17 17 22 -20 21 -22 -23 -24 24 25 -27 29 -29 -30 -31
leaf_value=-0.038494646830040384 0.005142335198923668 -0.032091407501715984 0.071472851925336908 -0.019979664262849979 0.0087348032451909901 0.03332371078161854 -0.010991259396103827 -0.048010935623867698 0.0021050071016103246 -0.011642415218133341 -0.014506107989176266 -0.00053960677030335678 0.0002014669701805302 0.0064515206414497836 -0.0023990613060397201 -0.0037089114487705238 -0.016662093502039198 -0.035832498982957518 0.0040761986476237902 -0.0039935244505061446 0.0094284389244256289 0.028178841165038271 0.059991195813700354 0.012104266583636385 0.05153980365571479 -0.042775471578868268 0.10213909805245386 -0.0058377549603118965 0.00062931958365448925 0
leaf_weight=62.07512766122818 1325.4035891443491 62.217009469866753 13.059746474027632 90.651547402143478 2007.1481201946735 102.35827586054802 486.68618328869343 51.525805428624153 655.43294432759285 355.70905558764935 1205.1543906927109 330.12980784475803 779.65014241635799 2433.8092039972544 2629.7522287517786 491.80484965443611 168.83873096108437 83.646927654743195 209.57718288898468 440.55862139165401 48.063369706273079 37.968949273228645 2.7723309099674216 200.83994422852993 28.870075851678848 4.4827939569950095 3.3412851691246015 218.74508006870747 52.752547860145569 5.2216370552778244
leaf_count=309 5786 280 56 401 8658 441 2259 251 2850 1727 5647 1495 3610 10645 11550 2148 752 371 925 1951 208 166 12 899 128 20 15 979 238 23
internal_value=-7.98597e-06 -0.00807764 0.00288261 0.00358728 0.00719063 0.00994551 -0.0097805 -0.0193762 -0.000594807 -0.0157265 -0.00816496 -0.0115085 -0.00410152 0.00209029 0.000127517 0.00474113 -0.0039395 -0.0102468 -0.005183 0.00149303 0.0237026 -0.00137693 -0.0320502 0.00157602 0.00541985 0.0378416 -0.0124078 0.0027469 -0.0171588 0.0459823
internal_weight=14588.2 3847.4 10740.8 9736.36 2855.59 2109.51 3270.93 469.31 746.084 417.784 2801.62 1535.28 1266.34 6880.77 3955.16 2925.61 1004.49 464.835 378.416 539.651 61.1231 478.528 86.4193 576.47 452.938 33.3529 123.532 419.585 114.97 8.56292
internal_count=64800 17880 46920 42479 12350 9099 15298 2287 3251 2036 13011 7142 5869 30129 17336 12793 4441 2060 1677 2381 264 2117 383 2582 2026 148 556 1878 518 38
is_linear=0
shrinkage=0.05


Tree=17
num_leaves=31
num_cat=0
split_feature=82 40 5 79 49 81 48 18 79 54 0 2 50 50 18 47 78 78 46 40 46 46 46 18 3 47 49 54 4 76
split_gain=123.206 23.7219 20.3407 22.5855 19.6476 23.4526 21.399 22.759 15.8999 14.8618 28.3623 53.2769 21.9992 15.6207 13.9092 13.8731 13.6415 13.1809 14.4846 22.4795 21.0522 10.935 14.5932 9.41721 13.619 9.04548 8.81895 8.77908 6.52806 8.4933
threshold=1.0000000180025095e-35 25.500000000000004 0.7010151494202076 7.5000000000000009 0.025044802867383517 0.62500000000000011 0.25034435261707993 87.500000000000014 2.5000000000000004 0.13628217660475728 1.0000000180025095e-35 1.4559448793008689 0.074133811230585434 0.21441558441558442 55.500000000000007 0.033413078149920263 0.59375569373998738 0.59021183345507666 0.06187527469725463 57.500000000000007 0.033361170837241223 0.094203554109668811 0.12028054756197055 13.500000000000002 2.6961538461538468 0.15913729128014845 0.16157731157731162 0.13877217553688145 2.7888888888888892 4.5000000000000009
decision_type=2 2 2 2 2 2 2 2 2 2 2 2 2 2 2 2 2 2 2 2 2 2 2 2 2 2 2 2 2 2
left_child=1 2 3 16 9 28 8 -8 -7 10 12 -12 -2 15 -5 -11 -1 18 20 -20 -3 26 -23 24 -19 -25 -4 -15 29 -6
right_child=4 17 21 14 5 6 7 -9 -10 13 11 -13 -14 27 -16 -17 -18 23 19 -21 -22 22 -24 25 -26 -27 -28 -29 -30 -31
leaf_value=-0.0059693853548886851 0.025689740741377032 0.00089789289501409427 -0.039491366840814994 -0.00053801282309309838 0.075936579642103236 0.001146661357195171 -0.0012717592764587876 -0.030438886343405597 0.0058771519068799181 -0.028264676293821046 -0.06214227770952583 -0.0083638927334270842 -0.041424711817384587 -0.037371259895767533 0.043926254053442228 0.0025474642557781059 -0.013582247170702146 -0.053703173372590687 -0.0068248132959499441 0.10374632561627523 0.042262938578625293 0.034910701789416576 -0.027406761213716838 -0.0025781131788019003 0.010771041304539118 -0.013406355435841719 0.0053235559595431244 0.085252023369209298 -0.02811414920841341 -0.018565364195350566
leaf_weight=1094.3486291915178 79.136513456702232 65.73126158118248 108.63248486816883 40.774508878588676 2.7369965314865095 2517.2759147584438 804.6754786670208 72.006965398788452 6061.6172954291105 37.764330521225929 51.328252702951431 391.98510412871838 13.431093990802763 1.1156972497701625 29.610329151153564 631.09027495980263 1286.9775276184082 7.6971570551395407 135.0504907220602 3.7555451393127433 57.308258250355721 13.988514855504034 24.126305013895035 503.47110424935818 138.13826647400856 313.77191682159901 11.737753719091414 7.1916539669036865 71.898116558790207 5.6193552166223526
leaf_count=5117 327 291 561 178 12 11100 3565 320 26148 167 289 1741 61 5 123 2803 6134 35 612 16 255 65 118 2262 623 1433 57 32 325 25
internal_value=-8.08485e-06 -0.00770102 -0.0103945 -0.00926121 0.0027367 0.00349939 0.00372933 -0.00370507 0.00448998 -0.00325272 -0.00946727 -0.0147276 0.0155597 0.00166458 0.018451 0.000760712 -0.0100898 -0.00195353 0.00796683 -0.00307675 0.0203902 -0.0277273 -0.00410001 -0.00466137 0.00699149 -0.00675292 -0.0350722 0.0660004 -0.0232428 0.0166608
internal_weight=14584 3835.12 2610.2 2451.71 10748.9 9535.83 9455.58 876.682 8578.89 1213.04 535.881 443.313 92.5676 677.162 70.3848 668.855 2381.33 1224.92 261.846 138.806 123.04 158.485 38.1148 963.078 145.835 817.243 120.37 8.30735 80.2545 8.35635
internal_count=64800 17880 12353 11552 46920 41495 41133 3885 37248 5425 2418 2030 388 3007 301 2970 11251 5527 1174 628 546 801 183 4353 658 3695 618 37 362 37
is_linear=0
shrinkage=0.05


Tree=18
num_leaves=31
num_cat=0
split_feature=82 42 52 12 45 77 16 54 48 9 43 47 50 46 64 64 50 32 2 50 5 40 50 30 78 18 32 16 48 5
split_gain=111.441 22.9385 20.829 18.3707 18.2789 21.9 15.5059 15.0538 13.542 21.4698 13.1428 12.859 29.4035 35.2816 20.715 24.4575 16.2652 13.8979 12.7644 18.2425 15.2799 11.0083 13.5087 17.2878 12.3447 17.8843 11.69 5.61915 5.05182 4.01143
threshold=1.0000000180025095e-35 16.500000000000004 0.015018796992481204 0.90238095238095251 24.500000000000004 0.76435719168021998 95.500000000000014 0.13899331662489559 0.23585714285714288 35.012345679012356 88.500000000000014 0.19179292929292932 0.15769920044113594 0.045044252219954679 1.3098385830773847 1.228553390593274 0.17510683760683762 0.63333333333333341 3.02078850826569 0.1072112753147236 0.63323993067401463 30.500000000000004 0.23837139423076928 0.42261904761904767 0.54825053948121727 30.500000000000004 0.39230769230769241 87.500000000000014 0.25034435261707993 0.63739175341852372
decision_type=2 2 2 2 2 2 2 2 2 2 2 2 2 2 2 2 2 2 2 2 2 2 2 2 2 2 2 2 2 2
left_child=1 21 27 4 18 6 -6 -7 10 -10 -4 12 13 -5 15 -13 -14 -16 19 -2 -20 24 23 -23 25 -1 -26 28 -3 -29
right_child=3 2 8 11 5 7 -8 -9 9 -11 -12 14 16 -15 17 -17 -18 -19 20 -21 -22 22 -24 -25 26 -27 -28 29 -30 -31
leaf_value=-0.019512323914845666 -0.0038424031117852021 0.074192026001592443 -0.004777006677179901 0.047393293248793746 -0.0026642832198986127 0.017351212284537076 0.026222555813434481 0.0070160203809223097 0.040315642322137468 -0.056142845087968421 0.056793863228352615 -0.0071916141607727387 -0.043306434846483201 0.0034834404874273779 -0.043347538658253408 0.075905180049799709 -0.0063462969423603898 0.020641875067033275 0.00098101091349298941 0.0030007238556816933 0.0082199934964911243 0.015535124976407128 -0.064525488681254337 -0.0097708602867535594 -0.020688708296975618 -0.0010824068077652316 -0.010131818831419004 0.051103281101731547 -0.029536016431386182 -0.046280622020650905
leaf_weight=192.10546889901161 1728.8175616711378 11.816047668457028 1788.8875144124031 55.032191753387451 697.81079280376434 448.20856705307961 48.75425498187542 1668.8934743106365 33.750548616051674 5.9716569781303397 7.7027418166398993 408.38137790560722 35.120461568236351 252.06742702424526 60.537045314908028 8.0469142794609052 175.25760234892368 9.1217860132455808 1563.2807694673538 2227.6331125795841 1368.3177644014359 106.90887309610844 7.4273232519626609 179.14413359761238 582.00070668756962 415.92852783203125 487.9272600710392 0.70962020754814092 0.69458794593811113 1.7697895467281339
leaf_count=912 7635 53 8194 236 3040 1901 211 7198 150 27 34 1815 154 1115 271 36 773 41 6874 9701 5919 481 34 827 2823 1961 2370 3 3 8
internal_value=-8.6303e-06 -0.00734058 -0.00333719 0.00259734 0.00326057 0.00661793 -0.000738593 0.00921359 -0.00383248 0.0246691 -0.0044788 -0.00383916 0.001638 0.0114966 -0.00967168 -0.00539591 -0.0127158 -0.0347239 0.00186328 9.06042e-06 0.00436315 -0.0110939 -0.00213108 -0.000274463 -0.0126563 -0.00693594 -0.015893 0.0534693 0.0663031 -0.010295
internal_weight=14578 3822.74 1851.3 10755.3 9751.72 2863.67 746.565 2117.1 1836.31 39.7222 1796.59 1003.56 517.478 307.1 486.087 416.428 210.378 69.6588 6888.05 3956.45 2931.6 1971.44 293.48 286.053 1677.96 608.034 1069.93 14.99 12.5106 2.47941
internal_count=64800 17880 8472 46920 42479 12350 3251 9099 8405 177 8228 4441 2278 1351 2163 1851 927 312 30129 17336 12793 9408 1342 1308 8066 2873 5193 67 56 11
is_linear=0
shrinkage=0.05


Tree=19
num_leaves=31
num_cat=0
split_feature=82 42 49 81 48 48 17 40 42 54 0 2 51 45 43 12 45 40 30 45 53 45 43 45 17 4 76 45 19 57
split_gain=100.828 20.9308 17.2446 21.2842 18.3902 13.7765 15.5333 16.5662 13.5757 13.221 25.9724 50.3378 20.3246 12.5602 11.7256 11.0538 10.8385 10.1632 12.5185 11.1591 10.1275 11.5475 9.93626 9.82386 7.81921 6.09686 7.74048 7.22991 4.14822 6.3279
threshold=1.0000000180025095e-35 16.500000000000004 0.025044802867383517 0.62500000000000011 0.25034435261707993 0.2224014336917563 46.500000000000007 24.500000000000004 44.500000000000007 0.13628217660475728 1.0000000180025095e-35 1.4559448793008689 0.19055059523809526 9.5000000000000018 88.500000000000014 0.74216524216524227 56.500000000000007 30.500000000000004 0.42261904761904767 22.500000000000004 0.035043859649122815 60.500000000000007 3.5000000000000004 14.500000000000002 19.500000000000004 2.7888888888888892 4.5000000000000009 17.500000000000004 21.500000000000004 0.4188596491228071
decision_type=2 2 2 2 2 2 2 2 2 2 2 2 2 2 2 2 2 2 2 2 2 2 2 2 2 2 2 2 2 2
left_child=1 16 9 25 8 14 7 -7 -5 10 12 -12 -2 -6 15 -3 17 19 -19 -1 22 -22 -11 -8 -16 26 -4 -27 29 -18
right_child=2 5 3 4 13 6 23 -9 -10 20 11 -13 -14 -15 24 -17 28 18 -20 -21 21 -23 -24 -25 -26 27 -28 -29 -30 -31
leaf_value=-0.015058688237926368 0.025146815040000201 0.001846953927651299 0.072022469485448201 0.0034094690386895382 0.0046419330383859455 -0.052241179702096685 -0.027770435857217942 0.062577699651765559 0.0098315282332355619 0.015989081005878657 -0.061087378800303155 -0.0079937739229283458 -0.037088280853590901 -0.0078933756721567862 -0.039956236464257229 -0.0067834339338557871 0.073258919470539197 0.011461655559740075 -0.0097679966828532958 -0.0066178222344028849 0.001145434267343151 -0.056645480321814372 0.10084517670279528 0.025814807062852514 0.073450254634264536 -0.050601470757028734 -0.017830838856569147 -0.015816697409079032 -0.064735173946111266 -0.039030072834432245
leaf_weight=1006.2239242196083 77.890531465411186 524.269671022892 2.7951175570487958 7673.265152156353 306.3453171402216 2.792773678898814 17.258073180913925 23.173304691910744 922.51395070552826 16.604696303606037 49.533209800720215 391.00571505725384 14.761990725994108 569.08371140062809 1.1550935953855503 1258.5718615949154 0.84097316861152593 111.66285853087902 179.79263985157013 649.24546186625957 649.90793511271477 7.7591134309768668 3.6262942105531684 15.067608460783957 6.6694517582654953 21.935650303959846 5.5845904648303986 49.368079960346222 11.749013945460318 2.9231758117675781
leaf_count=4876 320 2410 12 33298 1358 13 77 101 3950 74 289 1741 68 2527 5 5769 4 501 833 3123 2883 34 16 68 29 101 25 224 57 14
internal_value=-8.72179e-06 -0.00699651 0.00246598 0.00317897 0.00339694 -0.0031728 0.020531 0.0485636 0.00410034 -0.00315064 -0.00903475 -0.0140997 0.0148876 -0.00350081 -0.00395825 -0.00424313 -0.0105931 -0.0102419 -0.00160598 -0.0117573 0.00147656 0.000371065 0.0354681 -0.00261817 0.0535114 -0.0223876 0.0160906 -0.0271388 -0.0510843 -0.00278206
internal_weight=14573.4 3811.4 10762 9550.89 9471.21 1848.96 58.2918 25.9661 8595.78 1211.09 533.191 440.539 92.6525 875.429 1790.67 1782.84 1962.44 1946.92 291.455 1655.47 677.898 657.667 20.231 32.3257 7.82455 79.6834 8.37971 71.3037 15.5132 3.76415
internal_count=64800 17880 46920 41495 41133 8472 259 114 37248 5425 2418 2030 388 3885 8213 8179 9408 9333 1334 7999 3007 2917 90 145 34 362 37 325 75 18
is_linear=0
shrinkage=0.05


Tree=20
num_leaves=31
num_cat=0
split_feature=82 40 42 78 16 78 42 82 32 40 18 46 0 3 23 47 78 16 57 17 47 53 32 47 42 39 47 77 67 49
split_gain=91.1983 19.5985 19.5906 19.1044 27.5655 16.3979 15.6865 26.7557 23.4023 21.3862 21.5836 19.5043 39.0408 38.9636 15.9654 15.8301 14.982 17.4699 35.1146 19.6172 14.5669 13.672 13.5384 13.4329 13.2423 13.1471 11.8435 11.3785 9.84374 4.69169
threshold=1.0000000180025095e-35 24.500000000000004 39.500000000000007 0.69912785631804086 34.500000000000007 0.5971872335669538 16.500000000000004 1.2071067811865477 1.0000000180025095e-35 59.500000000000007 7.5000000000000009 0.028796161103271937 1.0000000180025095e-35 2.4722222222222228 7.5000000000000009 0.062361111111111117 0.59021183345507666 97.500000000000014 0.82575757575757591 90.500000000000014 0.14775526197939995 0.19205911330049263 0.27922077922077926 0.26685606060606065 3.5000000000000004 49.500000000000007 0.46966911764705888 0.79060744400272776 1.3662073280160509 0.12917663476874006
decision_type=2 2 2 2 2 2 2 2 2 2 2 2 2 2 2 2 2 2 2 2 2 2 2 2 2 2 2 2 2 2
left_child=1 2 5 4 -4 26 11 9 20 10 -8 12 29 -14 27 -11 23 19 -19 -18 -9 -10 -5 25 -16 -3 -1 -13 -7 -2
right_child=6 16 3 22 -6 28 7 8 21 15 -12 14 13 -15 24 -17 17 18 -20 -21 -22 -23 -24 -25 -26 -27 -28 -29 -30 -31
leaf_value=-0.0066829675956705985 0.023418657942513837 0.0065508549659223092 -0.029459449328102849 0.047245856663677338 0.0089439789094930278 -0.013158857991105197 0.016697890288714341 0.0026467971079029481 -0.022371252327686719 0.074099478385126011 0.0038250379677103037 -0.0034766686600910183 -0.061308634742295025 -0.010752372270762395 0.060182196432230176 0.019041914421127057 -0.0034997311648726952 0.08046821334562719 -0.043830266263556149 -0.029515563626017746 0.058953820984223797 0.015058818961338014 -0.031679593482213587 -0.051495947974720381 0.01120897702745048 0.042182624582029871 0.078130706430025121 0.0021135121823884283 -0.027102303914419645 -0.044178781192269596
leaf_weight=1076.8162963837385 77.473819985985756 250.99816150963306 64.543053016066551 33.635771051049232 161.62880811095238 1000.4099179953337 351.35854297876358 122.16640631854534 209.4257524907589 14.441365048289297 4365.8072643876076 1201.3682363629341 43.128258839249611 288.90535463392735 14.006343841552733 98.96851934492588 920.30435208976269 15.148084685206415 7.920250639319419 77.796397432684898 11.722661226987837 26.728729739785194 5.6417049616575232 8.0787130147218686 198.09765526652336 28.055321484804153 3.1286550909280768 3742.2300254553556 146.41427685320377 1.7097538411617268
leaf_count=5098 317 1131 302 152 743 4855 1510 540 943 62 18780 5334 266 1260 61 419 4192 68 36 355 52 117 26 39 854 125 15 16397 743 8
internal_value=-9.19927e-06 -0.00666737 -0.00926852 0.00354543 -0.0020747 -0.0107992 0.00234081 0.00431515 -0.00862131 0.00530875 0.00478827 0.000495041 -0.00996944 -0.0174986 0.00133243 0.0266829 -0.00170525 -0.00454583 0.0375361 -0.00556004 0.00801433 -0.0180681 0.03528 0.00836045 0.0147336 0.0102889 -0.00636058 0.000753575 -0.0149654 0.021364
internal_weight=14568.1 3800.52 2492.22 265.449 226.172 2226.77 10767.5 5200.62 370.044 4830.58 4717.17 5566.92 411.217 332.034 5155.7 113.41 1308.3 1021.17 23.0683 998.101 133.889 236.154 39.2775 287.132 212.104 279.053 1079.94 4943.6 1146.82 79.1836
internal_count=64800 17880 11934 1223 1045 10711 46920 22423 1652 20771 20290 24497 1851 1526 22646 481 5946 4651 104 4547 592 1060 178 1295 915 1256 5113 21731 5598 325
is_linear=0
shrinkage=0.05


Tree=21
num_leaves=30
num_cat=0
split_feature=79 6 30 46 55 18 17 66 50 29 3 67 33 18 77 51 38 39 16 67 78 46 47 63 40 16 33 78 18
split_gain=28.25 20.4954 20.2639 19.0647 17.5485 15.7786 19.8171 19.7085 14.7515 19.9384 15.1081 14.6112 19.8913 14.2183 19.671 18.1932 14.004 12.852 11.6147 10.6222 9.73779 7.62918 15.0856 12.186 7.24536 5.75152 3.95888 3.64142 2.12931
threshold=2.5000000000000004 1.0000000180025095e-35 0.48333333333333339 0.30393874236214369 2.8546777136050454 79.500000000000014 11.500000000000002 1.2075483916209817 0.18684093684093686 0.37980769230769235 4.3038461538461545 1.1315355937288494 1.8775614752292229 62.500000000000007 0.95708392743267201 0.26958653026427964 49.500000000000007 43.500000000000007 6.5000000000000009 1.0188278891987774 0.712277775389065 0.042246090792944176 0.14433760683760685 1.2071067811865477 71.500000000000014 88.500000000000014 3.1264038509638499 0.5971872335669538 49.500000000000007
decision_type=2 2 2 2 2 2 2 2 2 2 2 2 2 2 2 2 2 2 2 2 2 2 2 2 2 2 2 2 2
left_child=5 17 3 18 -5 7 21 13 10 -10 -4 12 -8 14 -1 -15 -13 19 -3 20 -2 22 -7 -23 27 28 -21 -19 -9
right_child=1 2 8 4 -6 6 11 25 9 -11 -12 16 -14 15 -16 -17 -18 24 -20 26 -22 23 -24 -25 -26 -27 -28 -29 -30
leaf_value=-0.0040518986665294679 -0.027152815022438537 -0.0044019941231366174 -0.031638571443265665 -0.024148105459009611 0.015916719858083992 -0.025635217579352877 -0.010447954451660134 0.10900653386779269 0.02082596376058389 -0.025288234434499207 -0.003109373023584037 -0.020770400177156728 0.0063451096261148508 0.006004412966084581 0.017951597671638769 -0.026075585321243346 0.084157113552158339 -0.027282929946499196 0.003863938579481556 -0.064575996621808809 0.035240489372636102 -0.042315212754203468 0.099473424818223466 0.04406866384997514 -0.043173733512488911 -0.028167064358440488 0.026257339078348197 0.062368207490345454 0.030135286507952594
leaf_weight=3074.3428436815739 37.544472426176071 451.63452799618244 46.669110968708992 113.84810841083527 34.938907161355019 8.3078594803810102 412.87331257760525 4.2390204071998587 124.7830736041069 27.828496932983398 1847.5291447937489 183.1357968300581 306.00476452708244 754.15961785614491 103.99430350959301 45.916487798094749 2.2518304735422126 0.66872902214526941 6867.0052760988474 20.688299328088764 6.5091716200113288 69.533145770430565 2.248595491051673 3.4880913794040671 1.8202558159828184 0.68166410923004139 0.67297199368476768 6.4920900017023087 2.4751497507095337
leaf_count=14001 171 1977 205 516 152 42 1872 19 548 123 8264 859 1392 3418 456 209 10 3 30032 97 30 321 10 17 9 3 3 30 11
internal_value=-9.02679e-06 0.00157667 0.00178275 0.00299109 -0.0146631 -0.00306678 -0.00872167 -0.00166218 -0.00262252 0.0122747 -0.00383123 -0.00654179 -0.00329382 -0.00182445 -0.00332496 0.00412684 -0.0190244 -0.0243859 0.00335263 -0.032125 -0.0172453 -0.0318914 0.00688273 -0.0375817 0.0290529 0.0748519 -0.0604445 0.051066 0.0882547
internal_weight=14562.3 9588.63 9514.24 7467.43 148.787 4973.65 987.843 3985.81 2046.81 152.612 1894.2 904.266 718.878 3978.41 3178.34 800.076 185.388 74.396 7318.64 65.4149 44.0536 83.5777 10.5565 73.0212 8.98107 7.39583 21.3613 7.16082 6.71417
internal_count=64800 42160 41817 32677 668 22640 4523 18117 9140 671 8469 4133 3264 18084 14457 3627 869 343 32009 301 201 390 52 338 42 33 100 33 30
is_linear=0
shrinkage=0.05


Tree=22
num_leaves=31
num_cat=0
split_feature=42 45 77 9 18 50 49 47 81 1 62 12 49 49 77 77 48 66 40 78 16 54 33 66 2 77 29 18 47 48
split_gain=27.3735 22.9588 26.5781 16.9846 15.2017 20.6225 16.4109 14.2812 18.7637 72.3802 36.9659 15.3077 19.8951 20.2222 20.0029 16.491 14.056 13.8391 18.3723 20.5196 18.5811 17.2295 20.568 16.1619 13.5315 12.5251 11.2774 7.84997 5.31911 3.38869
threshold=16.500000000000004 24.500000000000004 0.76435719168021998 76.504256790123478 1.5000000000000002 0.077849927849927864 0.19462481962481967 0.11005952380952382 0.87500000000000011 1.0000000180025095e-35 1.3106601717798216 0.88675213675213682 0.16707717569786537 0.19055059523809526 0.81080544157311929 0.89626878395503062 0.048656204906204918 0.35662817184376239 60.500000000000007 0.74152103191582242 83.500000000000014 0.046941773504273511 2.7747602575818173 0.35600959857663839 2.6631407900106212 0.90150602862507756 0.29285714285714287 1.5000000000000002 0.10157490079365081 0.032630878438331866
decision_type=2 2 2 2 2 2 2 2 2 2 2 2 2 2 2 2 2 2 2 2 2 2 2 2 2 2 2 2 2 2
left_child=7 17 3 16 5 -4 -6 8 10 -10 28 15 14 -14 -13 24 -3 21 20 -20 -19 22 -2 -23 -9 -17 -11 -5 -1 -12
right_child=1 2 4 27 6 -7 -8 11 9 26 29 12 13 -15 -16 25 -18 18 19 -21 -22 23 -24 -25 -26 -27 -28 -29 -30 -31
leaf_value=-0.06306999118910786 0.013582488516896574 -0.016550544261953005 -0.049127832658702679 0.069735087773256252 0.0091274044485961346 0.069431394227564114 0.045374463244238383 -0.005775923189287482 -0.060822976321341149 -0.0096274071388078031 0.027920060572687835 -0.00056391660855909995 0.021139747124835375 -0.0061171770528900514 -0.020398134490159946 0.027678100529318156 0.0041813450832499403 -0.0015794325464564126 -0.00062040336244491995 0.080319255529431643 -0.015756892789867732 -1.1766595925967219e-05 -0.0056248143317533389 0.034977409067723973 0.00041158572655665459 0.0045726953185053903 0.00014367913890150593 -0.036891200495959134 0.015514242864514263 -0.037748756689063162
leaf_weight=14.487808153033258 573.30703014135361 99.383797064423561 3.6419191807508495 0.87305757403373618 1282.8920838087797 20.041809663176537 31.165476873517036 1217.9834787547588 61.552743181586266 724.75949203968048 86.640740811824799 203.20057365298271 100.7345840036869 204.2544998973608 341.12870939075947 62.601083770394325 439.38384421169758 1309.6683783680201 17.875227406620983 12.748232722282408 280.00516803562641 2725.090387031436 183.00021982192993 32.405134931206703 3206.5879328548908 786.11028158664703 496.1497400701046 39.661312878131866 1.9837356060743321 1.1156903952360142
leaf_count=66 2528 437 16 4 5529 85 134 5483 397 3296 363 937 454 922 1561 276 1921 5789 77 54 1242 11956 801 144 14399 3518 2219 178 9 5
internal_value=-8.62428e-06 0.00222814 0.00689587 -0.00204107 0.0107683 0.0497459 0.0100247 -0.0021096 -0.00669015 -0.00835272 0.0136042 -0.00107043 -0.00729594 0.00290881 -0.0130177 -6.55985e-05 0.000324196 0.000483254 -0.00333705 0.0343902 -0.00408813 0.00224675 0.00892709 0.000410132 -0.00129148 0.00631341 -0.0056557 -0.0328505 -0.0529733 0.0266129
internal_weight=14560.4 7051.14 1917.04 579.302 1337.74 23.6837 1314.06 7509.29 1386.69 1282.46 104.228 6122.6 849.318 304.989 544.329 5273.28 538.768 5134.1 1620.3 30.6235 1589.67 3513.8 756.307 2757.5 4424.57 848.711 1220.91 40.5344 16.4715 87.7564
internal_count=64800 30895 8304 2540 5764 101 5663 33905 6355 5912 443 27550 3874 1376 2498 23676 2358 22591 7162 131 7031 15429 3329 12100 19882 3794 5515 182 75 368
is_linear=0
shrinkage=0.05


Tree=23
num_leaves=31
num_cat=0
split_feature=42 45 77 46 0 5 42 17 49 9 16 66 46 46 57 52 52 16 19 32 2 49 4 42 65 50 49 3 3 17
split_gain=24.7384 20.6786 23.9529 16.0122 43.544 59.1283 17.8245 15.6151 27.8763 20.095 15.397 20.3802 14.406 15.0606 18.4814 13.7196 13.5747 21.2985 23.6084 14.3807 12.9397 15.6256 12.8933 12.2013 11.3125 10.9273 8.46411 6.45851 4.8501 3.34786
threshold=16.500000000000004 24.500000000000004 0.74095605737050441 0.029291611874803117 1.0000000180025095e-35 0.72514416922622493 14.500000000000002 77.500000000000014 0.19462481962481967 23.012345679012352 87.500000000000014 0.19789621224058285 0.30393874236214369 0.038585609983616938 0.86607142857142871 0.40657327586206898 0.17783119658119662 37.500000000000007 5.5000000000000009 0.15587044534412958 3.7374897328201384 0.1072112753147236 5.1909090909090922 50.500000000000007 3.4068774446576202 0.25060386473429958 0.12917663476874006 3.442307692307693 5.9545454545454559 68.500000000000014
decision_type=2 2 2 2 2 2 2 2 2 2 2 2 2 2 2 2 2 2 2 2 2 2 2 2 2 2 2 2 2 2
left_child=3 12 10 4 26 6 -6 8 -4 -9 25 -12 13 23 -15 24 20 19 -19 -18 22 -22 -5 -2 -14 -3 29 -17 -7 -1
right_child=1 2 7 16 5 28 -8 9 -10 -11 11 -13 15 14 -16 27 17 18 -20 -21 21 -23 -24 -25 -26 -27 -28 -29 -30 -31
leaf_value=0.033648468972429124 -0.0027111408464923731 -0.005038813578553878 0.011331530993578871 0.001983818834390296 -0.0021770980437803419 -0.06079488431705482 -0.025580127934790593 0.015663481109478728 0.065053940266037155 -0.0107092063311988 0.037189899869377513 -0.029563929677498726 -0.025616304734987213 -5.1388226513046211e-05 0.0073104651181642253 0.006504474534703421 -0.0099840019900340124 0.029352297585883688 -0.015041267400700793 0.0096468855118972251 -0.017603245089982702 -0.0015416775550154507 -0.0034369558975505116 -0.026481718005908886 0.0084463773575598686 -0.060896931018220836 -0.05247116596119164 0.069204320039301631 0.042108305870880686 0.013323494789035937
leaf_weight=46.256004944443703 1174.3342021405697 426.86554855108261 1102.0058612525463 3721.9293174594641 283.10223942995071 66.678802311420441 113.61667220294476 118.31252147257328 23.789633482694626 182.0156672000885 44.914266839623451 14.312796369194983 127.29545605182648 2393.1514098346233 1322.0894107669592 28.892438307404518 148.7475510686636 30.634251520037651 567.00382913649082 246.13233877718449 227.34140975773335 452.57526138424873 1553.8927375823259 55.685391783714294 29.322530448436737 7.9718996733427039 2.7766891568899146 3.8988446295261374 0.44876343011855979 41.114690825343132
leaf_count=195 5143 1879 4736 16699 1267 432 508 509 101 787 193 63 589 10540 5801 132 682 138 2585 1113 1057 2059 6985 241 128 36 13 17 2 170
internal_value=-8.68769e-06 0.00211636 0.00654171 -0.00200769 -0.0101819 -0.0163687 -0.00893955 0.00982767 0.0125279 -0.000285745 -0.00293387 0.0207521 0.000459504 0.000979881 0.00256829 -0.0130345 -0.00135385 -0.00676483 -0.0127121 0.00223294 -0.000450296 -0.00693744 0.000385937 -0.00381198 -0.0191941 -0.00621171 0.0214273 0.0159348 -0.0594256 0.0243996
internal_weight=14557.1 7054.86 1920.19 7502.25 553.994 463.846 396.719 1426.12 1125.8 300.328 494.065 59.2271 5134.67 4945.26 3715.24 189.409 6948.26 992.518 597.638 394.88 5955.74 679.917 5275.82 1230.02 156.618 434.837 90.1474 32.7913 67.1276 87.3707
internal_count=64800 30895 8304 33905 2587 2209 1775 6133 4837 1296 2171 256 22591 21725 16341 866 31318 4518 2723 1795 26800 3116 23684 5384 717 1915 378 149 434 365
is_linear=0
shrinkage=0.05


Tree=24
num_leaves=31
num_cat=0
split_feature=82 40 51 43 12 7 54 2 66 45 18 38 39 39 3 78 18 18 5 19 45 18 46 18 7 16 54 57 40 45
split_gain=81.7554 17.246 15.1291 19.1967 14.3546 17.0121 14.6742 23.4734 14.816 14.5865 13.3448 22.8278 12.4726 12.9963 12.3457 12.1857 13.1179 13.0238 10.9257 12.1879 11.5151 10.9044 9.55159 8.90519 8.35122 7.1886 7.10911 3.22889 2.65452 2.61457
threshold=1.0000000180025095e-35 35.500000000000007 0.025105042016806727 10.500000000000002 0.90238095238095251 0.26000000000000006 0.34834956709956716 3.8957943050031685 0.29158718903677322 24.500000000000004 51.500000000000007 40.500000000000007 10.500000000000002 11.500000000000002 2.5166666666666671 0.60119140179661767 36.500000000000007 37.500000000000007 0.69382959766418029 31.500000000000004 18.500000000000004 59.500000000000007 0.050196604643462768 12.500000000000002 0.26000000000000006 30.500000000000004 0.27988095238095245 0.69615384615384623 50.500000000000007 51.500000000000007
decision_type=2 2 2 2 2 2 2 2 2 2 2 2 2 2 2 2 2 2 2 2 2 2 2 2 2 2 2 2 2 2
left_child=1 2 3 21 6 10 7 9 -9 -2 22 -12 25 -14 23 17 -17 -4 20 -20 -16 -1 -6 28 -25 -8 -5 29 -3 -7
right_child=4 14 15 26 5 27 12 8 -10 -11 11 -13 13 -15 18 16 -18 -19 19 -21 -22 -23 -24 24 -26 -27 -28 -29 -30 -31
leaf_value=-0.019569470824450264 0.0015984891891004591 -0.051796357584883906 -0.0091720257699419699 -0.053761074560701554 0.019300829919551302 0.097627731168731566 -0.037631654213220511 0.013837525223271672 0.067483201510690524 0.0059044217915379836 -0.0050119205135400156 -0.033912997716355156 0.098616655231767436 0.0020574999539794483 0.0056179378746525717 -0.0031407866444247805 -0.012883059462192023 0.0013087238013350191 0.047635294850682082 0.0036409575759478933 -0.0098403095068588537 -0.002902517137841969 -0.0011654165228016974 0.068976198566548061 -0.00028713922948032564 -0.010973340870961556 -0.0023632545703734767 0 0.027778672945400935 0
leaf_weight=232.48655046522617 6799.2504411488771 2.6079258173704178 479.03869868814945 41.090815052390099 63.784090161323547 4.5548714846372595 36.344984963536263 33.381077200174332 21.016840040683746 2769.9974921494722 375.10925023257732 82.86565887928009 3.3991065621376064 17.538803964853287 225.14977470040321 541.74142983555794 964.56422346830368 772.65051804482937 22.735730335116386 48.150157108902931 256.44057157635689 171.32973386347294 472.11352218687534 13.968080624938013 5.922466814517974 85.366550698876381 8.364997595548628 1.3276367932558057 0.65846334397792805 0.68992125988006581
leaf_count=1176 29722 12 2259 209 272 20 162 147 93 11881 1670 373 15 77 1010 2569 4573 3610 98 213 1160 860 2097 60 26 382 42 6 3 3
internal_value=-9.07643e-06 -0.00632736 -0.00775585 -0.0162224 0.00221312 -0.00348633 0.00279777 0.00303469 0.035498 0.00284593 -0.00405595 -0.0103147 -0.0130604 0.0217418 0.00163268 -0.0063572 -0.00938699 -0.00270253 9.36131e-05 0.0182875 -0.00260635 -0.0125351 0.00129263 0.0366208 0.049087 -0.0192165 -0.0453858 0.0711516 -0.031832 0.086206
internal_weight=14553.6 3786.9 3211.27 453.272 10766.7 1000.44 9766.3 9623.65 54.3979 9569.25 993.873 457.975 142.649 20.9379 575.633 2757.99 1506.31 1251.69 552.476 70.8859 481.59 403.816 535.898 23.1569 19.8905 121.712 49.4558 6.57243 3.26639 5.24479
internal_count=64800 17880 15298 2287 46920 4441 42479 41843 240 41603 4412 2043 636 92 2582 13011 7142 5869 2481 311 2170 2036 2369 101 86 544 251 29 15 23
is_linear=0
shrinkage=0.05


Tree=25
num_leaves=31
num_cat=0
split_feature=82 40 51 43 17 49 81 77 48 18 9 54 0 2 55 50 47 43 78 80 57 57 19 9 66 58 53 49 54 33
split_gain=73.9652 15.6751 13.89 18.0143 14.9805 12.4788 18.3437 16.2189 14.6168 20.1468 12.1686 11.7008 17.693 40.3986 16.3378 14.0389 12.6957 11.1804 11.7978 10.2113 22.6593 19.8072 14.9174 11.6571 13.7774 13.2465 9.84648 8.94277 6.74144 6.58925
threshold=1.0000000180025095e-35 35.500000000000007 0.025105042016806727 10.500000000000002 80.500000000000014 0.025044802867383517 0.62500000000000011 0.84610879453847831 0.25034435261707993 87.500000000000014 91.873456790123456 0.13628217660475728 1.0000000180025095e-35 1.4559448793008689 1.5163225278622428 0.21441558441558442 0.033413078149920263 88.500000000000014 0.60119140179661767 1.5000000000000002 0.82575757575757591 0.55050505050505061 93.500000000000014 35.012345679012356 0.31144604703258766 0.34313725490196084 0.14264950166112958 0.12824730094466938 0.27988095238095245 0.12435499454676117
decision_type=2 2 2 2 2 2 2 2 2 2 2 2 2 2 2 2 2 2 2 2 2 2 2 2 2 2 2 2 2 2
left_child=1 2 3 4 -1 11 7 29 10 -10 -8 12 14 -14 -2 16 -13 18 -4 20 21 -3 -22 24 -21 -25 -17 -9 -5 -7
right_child=5 19 17 28 -6 6 8 27 9 -11 -12 15 13 -15 -16 26 -18 -19 -20 23 22 -23 -24 25 -26 -27 -28 -29 -30 -31
leaf_value=-0.006710715092954277 -0.052620155557254328 -0.0054129848692203702 -0.0026209426962005445 -0.052446268149647861 -0.029813443235985261 0.017407592134795698 0.0036764401978281376 0.031596289384900771 -0.00097180113930726288 -0.028610136450388055 -0.02079012849245564 -0.02712760706798921 -0.057932038079894638 -0.0073751462311735369 0.018018964848565959 0.084014334770450602 0.0024816395406593384 0.05681829340198398 -0.0092120849695194722 0.023024150140351186 -0.032703454842829632 0.036424385489969895 0.052662157609084048 -0.0099272798731146056 -0.0048008125118351036 0.037068902215900548 -0.039703419927781369 -0.037413420422625264 -0.002259911311019941 -0.040569942783473506
leaf_weight=311.21869926154613 8.0495306998491269 111.12076760828495 1249.2185651361942 40.066142335534096 90.329865008592606 4.7267556935548773 8567.8540699928999 17.160494029521946 802.84076420962811 70.894481241703033 50.084425628185272 37.393244490027428 43.102891594171524 389.16462470591068 85.060994192957878 7.1460292637348157 630.98131312429905 6.0465432703495017 1495.9023224115372 143.49746589362621 78.101118445396423 36.811493411660194 4.5453488975763312 122.11748825013638 63.451056450605392 16.058858469128609 1.3098934590816496 5.3518394231796256 8.3561013042926771 51.469957575201988
leaf_count=1578 38 500 5864 209 458 22 37028 76 3565 320 220 167 289 1741 350 31 2803 26 7121 637 351 164 20 554 284 72 6 25 42 239
internal_value=-8.54646e-06 -0.00602879 -0.00739473 -0.0155398 -0.0119813 0.00210203 0.00270545 -0.0211752 0.00290621 -0.00325022 0.00353127 -0.00269566 -0.00828862 -0.01255 0.0113647 0.00164422 0.000779583 -0.00605558 -0.00621653 0.00155738 -0.00656147 0.00513893 -0.0273753 0.00699934 0.0144868 -0.00420236 0.0621486 0.0140845 -0.0441079 -0.0353869
internal_weight=14549.4 3776.84 3201.14 449.971 401.549 10772.6 9570.38 78.709 9491.67 873.735 8617.94 1202.21 525.378 432.268 93.1105 676.83 668.375 2751.17 2745.12 575.704 230.579 147.932 82.6465 345.125 206.949 138.176 8.45592 22.5123 48.4222 56.1967
internal_count=64800 17880 15298 2287 2036 46920 41495 362 41133 3885 37248 5425 2418 2030 388 3007 2970 13011 12985 2582 1035 664 371 1547 921 626 37 101 251 261
is_linear=0
shrinkage=0.05


Tree=26
num_leaves=31
num_cat=0
split_feature=82 42 79 16 18 77 16 48 45 38 46 38 9 42 46 9 23 50 42 7 5 19 51 17 61 3 3 5 18 44
split_gain=66.8704 14.841 12.9618 13.9972 14.5469 12.7446 30.2321 15.9503 11.9384 14.9744 17.874 14.8975 13.8304 13.2666 27.5864 17.6664 12.9115 12.576 14.3404 12.5031 12.4667 11.1395 10.6527 10.4893 13.7538 10.4246 9.89645 9.11333 12.6022 8.58347
threshold=1.0000000180025095e-35 12.500000000000002 2.5000000000000004 25.500000000000004 79.500000000000014 0.63654143867647139 33.500000000000007 0.23585714285714288 24.500000000000004 34.500000000000007 0.019064853254896267 8.5000000000000018 24.999200000000005 16.500000000000004 0.028796161103271937 87.503086419753103 8.5000000000000018 0.11460391963109355 27.500000000000004 0.26000000000000006 0.39638285830807263 78.500000000000014 0.14483442802408322 92.500000000000014 1.275229498579356 4.9642857142857153 4.9642857142857153 0.52671562185592913 29.500000000000004 22.500000000000004
decision_type=2 2 2 2 2 2 2 2 2 2 2 2 2 2 2 2 2 2 2 2 2 2 2 2 2 2 2 2 2 2
left_child=1 21 3 29 -5 6 -4 -7 9 16 25 17 -12 14 -13 -15 19 20 -19 -2 -10 23 -18 26 -25 -11 -1 28 -23 -3
right_child=8 2 5 4 -6 7 -8 -9 11 10 12 13 -14 15 -16 -17 22 18 -20 -21 -22 27 -24 24 -26 -27 -28 -29 -30 -31
leaf_value=-0.013842227096079782 0.0015690720303871385 -0.0062628731232486495 0.057634177392585306 -0.010232985013049277 -0.036243658589795474 -0.003215554061134294 -0.0061014080435910839 0.021768762975084802 0.060084615752473952 0.039009960656402123 -0.013977487711381784 -0.029118561286928982 0.0013742465639826219 0.0087741329450301154 0.0024035515138395871 -0.022438222229799 0.012686776992134533 0.096567121910405798 0.022087161346865357 0.015975565592163125 0.00088590746770983171 -0.030375605906229172 -0.021521540058221596 -0.011228284077250265 -0.054864087223237171 -0.04136475730614983 -0.0032379093067166666 -0.023662841989818724 0.0068384644046460292 0.026020435317502422
leaf_weight=298.01954415440559 6632.9131067842245 53.688974946737289 29.124095365405083 207.45160154998302 72.676241368055344 1710.202664449811 47.914313703775406 65.328266948461533 9.8377207666635496 29.524661228060722 389.87663738429546 71.364402562379837 233.70441818237305 1306.9316138774157 1691.4643511027098 45.943541303277016 28.34423041343689 10.224057018756868 17.755377098917961 153.21808469295502 50.772044837474823 32.802388831973076 101.33431436121464 65.219758033752441 24.621067151427269 3.7573831826448432 844.13685564696789 215.60186226665974 68.405395448207855 31.961945846676826
leaf_count=1480 29048 256 134 994 349 7869 220 293 44 125 1721 311 1020 5517 7364 204 121 44 76 659 220 163 430 318 124 16 4126 1063 339 152
internal_value=-9.42313e-06 -0.00574323 -0.00311535 -0.0117052 -0.0171039 -0.00141125 0.0183593 -0.00228174 0.00199475 0.000911149 -0.00629607 0.00455297 -0.008223 0.00397164 0.00110883 0.00769468 0.00159722 0.0246701 0.0518688 0.00189739 0.011395 -0.00949947 -0.0139664 -0.00733155 -0.0237141 0.0288483 -0.00601893 -0.0178646 -0.00535323 0.00588769
internal_weight=14544.1 3767.15 2218.35 365.779 280.128 1852.57 77.0384 1775.53 10777 7572.67 656.863 3204.29 623.581 3115.7 1762.83 1352.88 6915.81 88.5892 27.9794 6786.13 60.6098 1548.81 129.679 1232 89.8408 33.282 1142.16 316.81 101.208 85.6509
internal_count=64800 17880 10267 1751 1343 8516 354 8162 46920 33140 2882 13780 2741 13396 7675 5721 30258 384 120 29707 264 7613 551 6048 442 141 5606 1565 502 408
is_linear=0
shrinkage=0.05


Tree=27
num_leaves=31
num_cat=0
split_feature=82 40 79 39 4 16 43 67 78 16 57 30 12 7 77 2 53 49 9 16 16 38 39 57 77 16 19 39 57 42
split_gain=60.5092 14.0511 16.7262 16.7247 15.7375 14.8975 19.118 13.6892 13.3735 15.2958 30.65 14.837 12.5743 15.3413 13.9039 26.5577 15.392 14.8705 13.7576 14.3295 12.815 12.0332 13.9236 12.799 12.0128 11.699 9.73029 9.09943 2.78017 2.43342
threshold=1.0000000180025095e-35 24.500000000000004 6.5000000000000009 16.500000000000004 4.825757575757577 14.500000000000002 84.500000000000014 1.4121791522527753 0.59021183345507666 97.500000000000014 0.82575757575757591 0.57738095238095244 0.90238095238095251 0.26000000000000006 0.81831400354178341 3.7669202664944028 0.33050115207373276 0.17954403320256981 12.301000000000002 95.500000000000014 41.500000000000007 48.500000000000007 30.500000000000004 0.86607142857142871 0.6843174438610391 3.5000000000000004 7.5000000000000009 57.500000000000007 0.69615384615384623 59.500000000000007
decision_type=2 2 2 2 2 2 2 2 2 2 2 2 2 2 2 2 2 2 2 2 2 2 2 2 2 2 2 2 2 2
left_child=1 2 3 7 -5 6 -4 -1 11 25 -11 24 14 21 18 16 -16 -17 20 -20 -2 23 -23 -14 -3 -10 -7 -13 29 -15
right_child=12 8 5 4 -6 26 -8 -9 9 10 -12 27 13 28 15 17 -18 -19 19 -21 -22 22 -24 -25 -26 -27 -28 -29 -30 -31
leaf_value=-0.0043395411963506316 0.0021114925805003188 0.046357370368181258 -0.058687900186534206 -0.0096077377428343408 -0.02554848393875286 -0.035460347095032228 0.085153996798563017 -0.019527817462706709 0.029877022352433835 0.074245669020045937 -0.042078066652845095 -0.027532889510931885 -0.0062925275167807181 0.091356927144001954 0.0041973917150728594 0.062119024147282521 -0.022693982474591725 -0.0031364687325938934 0.0015208877109011212 0.015837930664367502 -0.0071618260582011458 0.016583063763440261 -0.030447455214590125 0.0064646448583011822 0.0092556520984589628 -0.0057695325234219984 0.022854087231955027 0.036799187414055023 0 -0.00038804352006232483
leaf_weight=1491.1212801784277 625.81983384490013 23.465153485536575 12.245542198419569 451.8002735376358 237.75680013000965 6.820250764489173 1.8563874959945668 164.23025301098824 22.555558681488037 15.554940715432169 7.7531631439924231 37.376094222068787 609.95940110087395 4.6833281069993964 5013.6458286046982 29.555361852049828 52.748932555317879 11.893034502863882 2947.8137119710445 184.94092740118504 915.8339883685112 18.97506508231163 75.489437520503998 288.67408742010593 220.69798503816128 969.95918740332127 89.452058851718903 5.4665629863739005 1.3232927769422529 0.69480469822883595
leaf_count=7217 2800 104 58 2190 1186 30 8 849 102 68 36 176 2713 20 21672 127 234 51 12705 794 4096 84 338 1277 990 4445 396 25 6 3
internal_value=-9.46153e-06 -0.00547234 -0.00769911 -0.00859666 -0.0151403 0.0112303 -0.0350366 -0.00586029 -0.00126929 -0.00396568 0.035207 0.00823754 0.00189451 -0.00344204 0.00244074 0.00424387 0.003912 0.0436443 0.000468848 0.00237247 -0.00339524 -0.00398804 -0.0208733 -0.00218627 0.0130162 -0.00492515 0.0183494 -0.0185582 0.0668333 0.0805179
internal_weight=14540.2 3758.11 2455.28 2344.91 689.557 110.374 14.1019 1655.35 1302.83 1015.82 23.3081 287.006 10782.1 999.799 9782.25 5107.84 5066.39 41.4484 4674.41 3132.75 1541.65 993.098 94.4645 898.633 244.163 992.515 96.2723 42.8427 6.70143 5.37813
internal_count=64800 17880 11934 11442 3376 492 66 8066 5946 4651 104 1295 46920 4441 42479 22084 21906 178 20395 13499 6896 4412 422 3990 1094 4547 426 201 29 23
is_linear=0
shrinkage=0.05


Tree=28
num_leaves=31
num_cat=0
split_feature=82 51 43 18 17 12 7 77 77 59 18 62 46 18 31 19 16 17 12 62 53 19 3 16 53 77 57 13 18 39
split_gain=54.7194 13.007 20.0965 17.3305 15.6109 11.335 13.9122 12.9944 17.064 13.2067 13.2829 12.7967 12.2254 12.0065 11.0129 11.7863 10.9875 10.475 9.71921 17.0708 12.4281 8.86213 8.50392 6.97234 4.63351 6.4652 2.47786 2.20559 2.09325 1.03959
threshold=1.0000000180025095e-35 0.025105042016806727 10.500000000000002 59.500000000000007 80.500000000000014 0.90238095238095251 0.26000000000000006 0.89754289372717777 0.89804097588684284 0.51923076923076927 74.500000000000014 1.8696771661547691 0.12601769420460227 51.500000000000007 0.77500000000000013 19.500000000000004 39.500000000000007 1.0000000180025095e-35 0.9084821428571429 1.7661237755614951 0.33050115207373276 17.500000000000004 4.4606060606060618 27.500000000000004 0.16076649958228909 0.64189782218163283 0.69615384615384623 3.5000000000000004 59.500000000000007 72.500000000000014
decision_type=2 2 2 2 2 2 2 2 2 2 2 2 2 2 2 2 2 2 2 2 2 2 2 2 2 2 2 2 2 2
left_child=1 2 3 4 -1 7 13 9 22 12 -11 -10 -2 21 18 28 -5 -15 20 -20 -3 -7 -9 -17 29 -26 27 -8 -16 -4
