tree
version=v4
num_class=1
num_tree_per_iteration=1
label_index=0
max_feature_idx=292
objective=binary sigmoid:1
feature_names=Column_0 Column_1 Column_2 Column_3 Column_4 Column_5 Column_6 Column_7 Column_8 Column_9 Column_10 Column_11 Column_12 Column_13 Column_14 Column_15 Column_16 Column_17 Column_18 Column_19 Column_20 Column_21 Column_22 Column_23 Column_24 Column_25 Column_26 Column_27 Column_28 Column_29 Column_30 Column_31 Column_32 Column_33 Column_34 Column_35 Column_36 Column_37 Column_38 Column_39 Column_40 Column_41 Column_42 Column_43 Column_44 Column_45 Column_46 Column_47 Column_48 Column_49 Column_50 Column_51 Column_52 Column_53 Column_54 Column_55 Column_56 Column_57 Column_58 Column_59 Column_60 Column_61 Column_62 Column_63 Column_64 Column_65 Column_66 Column_67 Column_68 Column_69 Column_70 Column_71 Column_72 Column_73 Column_74 Column_75 Column_76 Column_77 Column_78 Column_79 Column_80 Column_81 Column_82 Column_83 Column_84 Column_85 Column_86 Column_87 Column_88 Column_89 Column_90 Column_91 Column_92 Column_93 Column_94 Column_95 Column_96 Column_97 Column_98 Column_99 Column_100 Column_101 Column_102 Column_103 Column_104 Column_105 Column_106 Column_107 Column_108 Column_109 Column_110 Column_111 Column_112 Column_113 Column_114 Column_115 Column_116 Column_117 Column_118 Column_119 Column_120 Column_121 Column_122 Column_123 Column_124 Column_125 Column_126 Column_127 Column_128 Column_129 Column_130 Column_131 Column_132 Column_133 Column_134 Column_135 Column_136 Column_137 Column_138 Column_139 Column_140 Column_141 Column_142 Column_143 Column_144 Column_145 Column_146 Column_147 Column_148 Column_149 Column_150 Column_151 Column_152 Column_153 Column_154 Column_155 Column_156 Column_157 Column_158 Column_159 Column_160 Column_161 Column_162 Column_163 Column_164 Column_165 Column_166 Column_167 Column_168 Column_169 Column_170 Column_171 Column_172 Column_173 Column_174 Column_175 Column_176 Column_177 Column_178 Column_179 Column_180 Column_181 Column_182 Column_183 Column_184 Column_185 Column_186 Column_187 Column_188 Column_189 Column_190 Column_191 Column_192 Column_193 Column_194 Column_195 Column_196 Column_197 Column_198 Column_199 Column_200 Column_201 Column_202 Column_203 Column_204 Column_205 Column_206 Column_207 Column_208 Column_209 Column_210 Column_211 Column_212 Column_213 Column_214 Column_215 Column_216 Column_217 Column_218 Column_219 Column_220 Column_221 Column_222 Column_223 Column_224 Column_225 Column_226 Column_227 Column_228 Column_229 Column_230 Column_231 Column_232 Column_233 Column_234 Column_235 Column_236 Column_237 Column_238 Column_239 Column_240 Column_241 Column_242 Column_243 Column_244 Column_245 Column_246 Column_247 Column_248 Column_249 Column_250 Column_251 Column_252 Column_253 Column_254 Column_255 Column_256 Column_257 Column_258 Column_259 Column_260 Column_261 Column_262 Column_263 Column_264 Column_265 Column_266 Column_267 Column_268 Column_269 Column_270 Column_271 Column_272 Column_273 Column_274 Column_275 Column_276 Column_277 Column_278 Column_279 Column_280 Column_281 Column_282 Column_283 Column_284 Column_285 Column_286 Column_287 Column_288 Column_289 Column_290 Column_291 Column_292
feature_infos=[0:1] [0:1] [0:128.99840000000003] [0:11] [0:1] [0:1] [0:4.3011626335213133] [0:7.5] [0:7.5] [0:1] [0:0.44] [0:6] [0:121.5104] [0:6] [0:6] [0:1] [0:6] [0:6] [0:1] [0:3] none none [0:18] [0:1] [0:1] [0:1] [0:1] [0:3.1415926535897931] [999:999] [999:999] [999:999] [999:999] [0:182] [0:151] [0:119] [0:149] [0:126] [0:123] [0:99] [0:130] [0:0.68042937234095602] [0:0.7142857142857143] [0:0.75] [0:0.6071428571428571] [0:0.72727272727272729] [0:0.625] [0:0.66666666666666663] [0:0.7142857142857143] [0:0.77500000000000002] [0:999] [0:1] [0:1] [0:1] [0:1] [0:999] [0:999] [0:999] [0:999] [0:999] [0:999] [0:1.9344889834412085] [0:999] none none none none none none none none [0:7] [0:1] [0:1] [0:14] [0:1] [0:4.3011626335213133] [0:7.5] [0:7.5] [0:1] [0:0.44] [0:6] [0:121.5104] [0:6] [0:6] [0:1] [0:6] [0:6] [0:1] [0:2] none none [0:18] [0:1] [0:1] [0:1] [0:1] [0:3.1415926535897931] [999:999] [999:999] [999:999] [999:999] [0:182] [0:151] [0:113] [0:149] [0:126] [0:131] [0:93] [0:130] [0:1] [0:0.7142857142857143] [0:1] [0:0.6071428571428571] [0:0.77272727272727271] [0:0.63749999999999996] [0:0.66666666666666663] [0:0.7142857142857143] [0:0.77500000000000002] [0:999] [0:1] [0:1] [0:1] [0:1] [0:999] [0:999] [0:999] [0:999] [0:999] [0:999] [0:1.9344889834412085] [0:999] none none none none none none none none [0:7] [0:1] [0:1] [0:14] [0:1] [0:4.3011626335213133] [0:7.5] [0:7.5] [0:1] [0:0.44] [0:6] [0:136.4864] [0:6] [0:6] [0:1] [0:6] [0:6] [0:1] [0:2] none none [0:18] [0:1] [0:1] [0:1] [0:1] [0:3.1415926535897931] [999:999] [999:999] [999:999] [999:999] [0:182] [0:151] [0:115] [0:149] [0:126] [0:131] [0:93] [0:130] [0:1] [0:0.7142857142857143] [0:1] [0:0.70370370370370372] [0:0.77272727272727271] [0:0.63749999999999996] [0:0.66666666666666663] [0:0.7142857142857143] [0:0.82499999999999996] [0:999] [0:1] [0:1] [0:1] [0:1] [0:999] [0:999] [0:999] [0:999] [0:999] [0:999] [0:1.9344889834412085] [0:999] none none none none none none none none [0:7] [0:1] [0:1] [0:14] [0:1] [0:4.3011626335213133] [0:7.5] [0:7.5] [0:1] [0:0.44] [0:6] [0:136.4864] [0:6] [0:6] [0:1] [0:6] [0:6] [0:1] [0:2] none none [0:18] [0:1] [0:1] [0:1] [0:1] [0:3.1415926535897931] [999:999] [999:999] [999:999] [999:999] [0:163] [0:137] [0:115] [0:141] [0:124] [0:131] [0:90] [0:114] [0:1] [0:0.69444444444444442] [0:1] [0:0.70370370370370372] [0:0.77272727272727271] [0:0.63749999999999996] [0:0.66666666666666663] [0:0.7142857142857143] [0:0.82499999999999996] [0:999] [0:1] [0:1] [0:1] [0:1] [0:999] [0:999] [0:999] [0:999] [0:999] [0:999] [0:1.8984940493176867] [0:999] none none none none none none none none [0:7] [0:1] [0:1] [0:14] [0:99] [0:99] [0:99] [0:99] none [0:1] none [0:1] [1:3] [0:4] [0.25:1] [0:999]
tree_sizes=1866 1899 2028 1683 1892 1914 2023 1902 2340 2314 1576 1903 1903 1577

Tree=0
num_leaves=16
num_cat=0
split_feature=292 284 184 112 251 208 216 219 95 9 41 44 240 105 261
split_gain=26.8417 15.4577 33.1047 37.3045 19.8515 16.2063 27.7675 47.052 8.66058 11.493 7.96583 6.00121 2.53055 2.33318 1.19816
threshold=1.0000000180025095e-35 88.500000000000014 0.070550527903469093 0.11460391963109355 0.07613871635610768 4.5000000000000009 0.60799386590449656 7.8024691358024709 0.26136363636363641 0.62480529536666529 0.016856060606060607 0.17970550115207376 32.500000000000007 22.500000000000004 6.9596532417136752
decision_type=2 2 2 2 2 2 2 2 2 2 2 2 2 2 2
left_child=-1 5 3 14 -5 8 7 -7 9 -2 12 -8 -4 -10 -3
right_child=1 2 10 4 -6 6 11 -9 13 -11 -12 -13 -14 -15 -16
leaf_value=-9.1249039699963976 -9.1032613186882418 -9.1016878296054529 -9.0829371692164287 -9.0840099916852513 -8.6575290669022458 -9.0970458657342572 -9.1102545433979074 -8.8795789351158021 -9.1236421003345498 -9.0172976365770872 -9.1152083954805114 -9.018816988115427 -8.9378998850080009 -9.0758046580378053 -9.0365270368329398
leaf_weight=20.416187061346136 7.4674373682210007 1.1332810770909412 0.23510586778138565 0.26559312698373094 0.58530970288848039 4.0944274924258952 8.0026200793872686 4.6274406982556684 13.360727338076687 6.2158611580452998 3.4851390463445568 1.25488756042614 0.028660307340032887 2.7742264029220669 0.044646136135270242
leaf_count=178800 65398 9925 2059 2326 5126 35858 70085 40526 117010 54437 30522 10990 251 24296 391
internal_value=-9.07747 -9.05885 -8.98804 -8.86499 -8.72496 -9.06917 -9.0329 -8.97369 -9.09162 -9.06311 -9.0843 -9.09286 -8.97317 -9.11551 -9.07926
internal_weight=73.9916 53.5754 5.77774 2.02883 0.850903 47.7976 17.9794 8.72187 29.8183 13.6833 3.74891 9.25751 0.263766 16.135 1.17793
internal_count=648000 469200 50600 17768 7452 418600 157459 76384 261141 119835 32832 81075 2310 141306 10316
is_linear=0
shrinkage=1


Tree=1
num_leaves=16
num_cat=0
split_feature=292 6 6 254 182 186 253 5 116 37 219 2 9 284 116
split_gain=25.4634 16.1028 21.5788 22.6132 19.0592 20.2682 11.5818 23.7893 23.1387 12.1162 10.8568 9.64048 8.22442 4.81796 2.26606
threshold=1.0000000180025095e-35 3.1305350708331994 3.1686349858430432 0.1072112753147236 0.081844763423710803 0.17656862745098043 0.14068287037037039 0.44949494949494956 0.10328332734459218 6.5000000000000009 28.544824430149983 26.612904989089497 0.67879984971209972 96.500000000000014 0.41978609625668456
decision_type=2 2 2 2 2 2 2 2 2 2 2 2 2 2 2
left_child=-1 6 3 10 14 -6 9 8 -8 11 -3 -2 -11 -9 -4
right_child=1 2 4 -5 5 -7 7 13 -10 12 -12 -13 -14 -15 -16
leaf_value=-0.047318391568159368 0.14384466371815324 0.34544231725227631 -0.041589681993967051 -0.01678954928044607 0.032256204630150428 0.22104657729524321 0.27476638836400447 -0.039268778994333335 0.015792842326940514 -0.03173471753057952 -0.0041723927633139047 8.167321660265022e-05 0.061158247572742408 0.074096291166580383 0.043522591329343163
leaf_weight=19.47051597526297 1.0376831180910806 0.50463661990943254 5.5357259912416321 0.65599033449689159 6.8408740185914212 1.0107019307833978 0.83207098714046823 4.1230150266273995 1.9636738319532012 26.639627861339253 0.2001242932092282 2.8933051635176525 1.6537862917903101 0.16843929500464572 0.015796360516105667
leaf_count=178800 9043 4286 47639 5679 59719 8460 7101 36007 16951 231728 1723 25174 14119 1435 136
internal_value=0.00023182 0.0179919 0.0606908 0.202035 0.0329628 0.0793503 0.000724154 0.054481 0.146268 -0.0122322 0.29902 0.0605209 -0.0242319 -0.0207122 -0.0339782
internal_weight=73.546 54.0755 14.7638 1.36075 13.4031 7.85158 39.3116 7.0872 2.79574 32.2244 0.704761 3.93099 28.2934 4.29145 5.55152
internal_count=648000 469200 127642 11688 115954 68179 341558 61494 24052 280064 6009 34217 245847 37442 47775
is_linear=0
shrinkage=0.05


Tree=2
num_leaves=17
num_cat=0
split_feature=292 6 222 49 117 185 101 278 170 284 184 153 244 77 161 22
split_gain=24.5243 14.732 17.7116 26.9942 28.1245 15.9819 19.3556 18.2232 12.6098 11.6395 19.2381 5.38347 4.13482 4.07367 2.48954 1.74565
threshold=1.0000000180025095e-35 3.1086368510883235 0.82596153846153852 1.2842784990944527 0.10878330995792428 0.20771088814567079 18.500000000000004 0.78133319895856668 52.500000000000007 88.500000000000014 0.064145876645876662 0.66145833333333348 1.0000000180025095e-35 5.0916666666666677 0.48076923076923084 10.500000000000002
decision_type=2 2 2 2 2 2 2 2 2 2 2 2 2 2 2 2
left_child=-1 5 3 4 -3 9 7 -7 14 11 -11 -2 -5 -10 -4 -8
right_child=1 2 8 12 -6 6 15 -9 13 10 -12 -13 -14 -15 -16 -17
leaf_value=-0.047194626584883707 0.032236673228467488 0.018601558243641798 -0.042155127558208806 0.065694092975618276 0.21406655426640936 -0.020458666312656183 -0.034442092918561283 0.21957836991262916 -0.0059958285197213787 0.1611426447314197 -0.032606965751605509 -0.034208075084221079 -0.037612304046147259 0.18068267256355822 0.024573883452199057 0.040341607009097669
leaf_weight=18.570847471710294 2.5870258916693336 3.2998978324176296 6.0064332378824465 0.2532917693970379 4.0933185622852761 0.86162538702774272 2.5342268686217726 1.5780657581199191 0.24984865290753067 1.344343647717323 2.1614910772113944 24.637132341274992 3.4381921165113454 0.062063422352366615 0.94430362761340791 0.051560950756538548
leaf_count=178800 22669 27354 51670 2115 34381 7376 21965 13648 2186 10449 19528 218281 28697 527 7899 455
internal_value=0.000826665 0.0179581 0.0531092 0.0902544 0.140029 -0.000897267 0.0736367 0.152049 -0.00704077 -0.0151805 0.0598529 -0.0267984 -0.0169662 0.136749 -0.0305101 -0.0207219
internal_weight=72.6737 54.1028 18.3473 11.0847 7.39322 35.7555 5.02548 2.43969 7.26265 30.73 3.50583 27.2242 3.69148 0.311912 6.95074 2.58579
internal_count=648000 469200 154829 92547 61735 314371 43444 21024 62282 270927 29977 240950 30812 2713 59569 22420
is_linear=0
shrinkage=0.05


Tree=3
num_leaves=14
num_cat=0
split_feature=292 284 163 112 93 208 216 247 255 81 2 32 95
split_gain=23.3006 13.2863 23.4797 26.2292 20.2822 13.8274 21.7608 40.0055 12.2796 12.0133 13.2513 10.0966 7.1571
threshold=1.0000000180025095e-35 88.500000000000014 0.30384615384615393 0.13545026881720432 0.24264705882352944 4.5000000000000009 0.60799386590449656 0.083092692512564417 0.26754926108374388 48.94444444444445 41.711873500000003 4.5000000000000009 1.0000000180025095e-35
decision_type=2 2 2 2 2 2 2 2 2 2 2 2 2
left_child=-1 5 3 11 -5 9 7 -7 -8 12 -11 -3 -2
right_child=1 2 -4 4 -6 6 8 -9 -10 10 -12 -13 -14
leaf_value=-0.047065859120288052 0.01777622680302807 0.1317717618345185 -0.033738772224925849 -0.011431668974985418 0.33432975709870494 0.2154663501472748 -0.034054474314336822 0.012741614605764374 0.12417565372080969 0.17002596633045297 -0.024957522697786186 -0.032431193636284883 -0.038045972212235268
leaf_weight=17.714933524257503 7.0405559248538401 0.34783150657312933 2.381444569582527 0.42595054770936236 0.93842006580234738 2.9363915479552833 8.7174706798687076 6.8887876311200671 0.40661253800499331 0.79522160960186639 1.1959926107301724 2.1297719061403768 20.322141251504945
leaf_count=178800 60687 2741 21344 2828 6424 21662 77485 54722 3590 6950 10543 17263 182961
internal_value=0.00112655 0.0174393 0.0808189 0.145163 0.26509 0.00769842 0.0399724 0.0880979 -0.0149402 -0.0136016 0.0820495 0.0204462 -0.023386
internal_weight=72.2415 54.5266 6.22342 3.84197 1.36437 48.3032 18.9493 9.82518 9.12408 29.3539 1.99121 2.4776 27.3627
internal_count=648000 469200 50600 29256 9252 418600 157459 76384 81075 261141 17493 20004 243648
is_linear=0
shrinkage=0.05


Tree=4
num_leaves=16
num_cat=0
split_feature=292 44 6 170 5 185 283 253 81 75 43 189 141 81 182
split_gain=22.2104 12.8606 17.1655 21.0714 27.9184 19.0291 23.4965 10.7885 9.15783 16.3035 7.77104 6.95494 6.93548 10.3887 3.89427
threshold=1.0000000180025095e-35 0.088388480392156882 3.1305350708331994 21.500000000000004 0.43650793650793657 0.20771088814567079 29.500000000000004 0.14068287037037039 48.94444444444445 3.0718004663230216 0.07768199233716476 0.84523809523809534 0.53717782638549694 6.1764004267642134 0.013423423423423427
decision_type=2 2 2 2 2 2 2 2 2 2 2 2 2 2 2
left_child=-1 8 5 4 -4 7 -7 -3 12 11 -5 -10 13 -2 -14
right_child=1 2 3 10 -6 6 -8 -9 9 -11 -12 -13 14 -15 -16
leaf_value=-0.046931945652980589 -0.033449881957369039 -0.024558497856239342 0 0.088817419245056706 0.22924328462562446 0.22520186522788066 -0.0023641187823983559 0.058272972877722387 -0.0058260409956895041 -0.027163583305274588 -0.036613564164753351 0.24797858529119174 0.021866415160876645 0.10103438510322432 -0.046398804328274063
leaf_weight=16.900635385536589 2.3223970509861895 16.880371515799204 2.0049249632938864 0.76487017943145508 2.9212403646015446 1.1620215349248604 2.2535364273790037 4.0333431179533354 0.24504260103276365 1.408033659448847 3.1070690990891308 0.15779787751671392 1.7132205393572792 1.6152332743731674 14.248740753559103
leaf_count=178800 20136 152734 16208 5908 22705 9265 17817 34402 2027 11451 24278 1277 14551 13825 122616
internal_value=0.00148011 0.0170632 0.0362884 0.0923684 0.151643 0.0129649 0.107393 -0.00642553 -0.012358 0.0727335 0.000282593 0.195928 -0.0234502 0.0299931 -0.0379198
internal_weight=71.7385 54.8378 33.1274 8.7981 4.92617 24.3293 3.41556 20.9137 21.7105 1.81087 3.87194 0.40284 19.8996 3.93763 15.962
internal_count=648000 469200 283317 69099 38913 214218 27082 187136 185883 14755 30186 3304 171128 33961 137167
is_linear=0
shrinkage=0.05


Tree=5
num_leaves=16
num_cat=0
split_feature=292 209 117 278 46 281 181 103 233 252 41 82 87 170 182
split_gain=21.1522 12.9747 16.9786 26.6737 24.108 19.3144 13.2474 12.0012 11.5946 14.7226 9.85936 11.9027 8.66485 7.90563 5.19058
threshold=1.0000000180025095e-35 0.86110448043241894 0.1334770114942529 0.70176409107835092 0.17098086124401915 5.5000000000000009 0.14752747252747256 32.500000000000007 0.39230769230769241 0.11252705627705629 0.028093434343434347 1.0000000180025095e-35 1.0000000180025095e-35 32.500000000000007 0.016856060606060607
decision_type=2 2 2 2 2 2 2 2 2 2 2 2 2 2 2
left_child=-1 7 5 4 -4 12 -5 10 9 -9 11 -2 -3 -7 -12
right_child=1 2 3 6 -6 13 -8 8 -10 -11 14 -13 -14 -15 -16
leaf_value=-0.046792740230865354 -0.029098254226580519 -0.0095306291708420129 0.019302422205076452 -0.019446145715789689 0.34306408593504245 -0.03460538259339746 0.11435416993483796 0.15278880550046878 -0.031784600827891647 -0.012676126300280595 0.033355327573713699 0.12918015065243857 0.2346107990241566 0.075793654911673128 -0.032146265785462202
leaf_weight=16.125920985359699 1.6308516273929883 0.35899469643482262 1.0921772902293003 4.0721637104797992 0.7681470022725988 9.0646839577020693 2.011711372557329 2.673687510592571 2.0187496913349605 1.8128926956487701 2.5388760147034217 1.4834807032384558 0.21217675363732269 0.94758904555055856 24.476556988644006
leaf_count=178800 13367 2923 9094 34197 6440 75239 17221 22220 17392 14796 21427 12293 1737 8278 212576
internal_value=0.00180043 0.0166751 0.0495964 0.100371 0.227936 0.0056771 0.0339881 -0.0007169 0.0559192 0.0948937 -0.0145093 0.0581536 0.169579 -0.017769 -0.0248412
internal_weight=71.2887 55.1627 18.5276 7.9442 1.86032 10.5834 6.08388 36.6351 6.50533 4.48658 30.1298 3.11433 0.571171 10.0123 27.0154
internal_count=648000 469200 155129 66952 15534 88177 51418 314071 54408 37016 259663 25660 4660 83517 234003
is_linear=0
shrinkage=0.05


Tree=6
num_leaves=17
num_cat=0
split_feature=292 209 284 117 141 6 106 250 284 109 248 284 278 47 178 243
split_gain=20.2573 12.1537 20.2734 20.8336 32.8565 15.9235 20.4973 12.5407 14.8609 11.4015 9.11001 9.06339 8.40758 5.70684 5.35107 5.05753
threshold=1.0000000180025095e-35 0.86110448043241894 29.500000000000004 0.1334770114942529 0.62595629357015858 3.1305350708331994 13.500000000000002 0.24922360248447209 76.500000000000014 0.015239668189692969 0.15986111111111115 93.500000000000014 0.79079180519409731 0.20194676013641535 0.043439684176317668 15.500000000000002
decision_type=2 2 2 2 2 2 2 2 2 2 2 2 2 2 2 2
left_child=-1 7 3 15 -5 11 -7 9 14 10 -2 -4 -10 -11 -9 -3
right_child=1 2 5 4 -6 6 -8 8 12 13 -12 -13 -14 -15 -16 -17
leaf_value=-0.046648104885691738 0.1436368239915353 -0.03021861131692849 -0.044100294797507648 0.0092421825241666093 0.32944880092958223 0.18218753747350669 -0.017190296586806625 0.080198419471899901 -0.0086361956043504561 -0.029319394714002779 -0.021728394726257452 0.075155137780470685 0.2324288178168864 0.025328839564954159 -0.033517359805190286 0.068403414286963657
leaf_weight=15.388853222248143 1.0398672531591717 1.7798385775604431 8.3138320430516579 1.4474144824780526 1.095124691033561 1.5625332956624327 2.1997963795729447 0.49769026308786113 0.3296061681176069 25.829063397344729 0.94521372888993926 0.95751297766401045 0.5756032408826286 4.9070324755011816 2.3359850487759104 1.491403863947198
leaf_count=178800 8746 15251 71311 11502 8715 11595 16825 4207 2576 223253 8216 7255 4410 42436 20227 12675
internal_value=0.00222838 0.0165036 0.0479912 0.118036 0.202639 0.0102062 0.0854322 -0.000486601 0.0755519 -0.0113062 0.0823206 -0.0251793 0.183567 -0.019914 0.000860527 0.0190618
internal_weight=70.6964 55.3075 18.8475 5.81378 2.54254 13.0337 3.76233 36.4601 3.73888 32.7212 1.98508 9.27135 0.905209 30.7361 2.83368 3.27124
internal_count=648000 469200 155129 48143 20217 106986 28420 314071 31420 282651 16962 78566 6986 265689 24434 27926
is_linear=0
shrinkage=0.05


Tree=7
num_leaves=16
num_cat=0
split_feature=292 44 78 108 185 144 6 246 81 75 141 81 189 241 1
split_gain=19.4115 11.4485 15.3174 22.2376 13.4197 16.6277 16.461 11.0119 8.63256 15.1854 6.64265 9.15134 6.58552 3.24351 1.40622
threshold=1.0000000180025095e-35 0.088388480392156882 0.700971104275249 23.500000000000004 0.20524267399267401 2.7793117769404998 3.1291384276553234 15.500000000000002 48.94444444444445 3.0718004663230216 0.53717782638549694 6.1764004267642134 0.84523809523809534 51.500000000000007 0.57793522267206487
decision_type=2 2 2 2 2 2 2 2 2 2 2 2 2 2 2
left_child=-1 8 4 14 6 -6 -3 -5 10 12 11 -2 -10 -12 -4
right_child=1 2 3 7 5 -7 -8 -9 9 -11 13 -13 -14 -15 -16
leaf_value=-0.046497892742780579 -0.033000889696175151 -0.019035855988195932 -0.026416313291677703 0.33575594057446517 0.17930468830440904 0.0082237783907822288 0.061569816318864372 0.013741817878119381 -0.0062130955608237946 -0.027252391587436687 -0.04332604860113333 0.091835435495904338 0.23398500919243839 0.032462482791176119 0.043926343305481834
leaf_weight=14.687593866256064 2.2346945194294738 18.535240467135743 1.3317512313515174 0.283188634457474 1.8127918570753525 3.2074915718985721 8.3657695437068451 0.49033722610329278 0.25604390018270251 1.417419344630616 14.719609910382129 1.7848313059512291 0.21484581281401915 0.75831853131239846 0.011430001533881184
leaf_count=178800 20136 168695 11071 2009 13043 23295 60992 4117 2027 11451 130571 13825 1277 6596 95
internal_value=0.00265805 0.0163665 0.0340452 0.140902 0.0227429 0.0903526 0.00716027 0.257294 -0.0118119 0.0694425 -0.0229292 0.0286876 0.184549 -0.0375647 -0.00519288
internal_weight=70.1114 55.4238 34.038 2.11671 31.9213 5.02028 26.901 0.773526 21.3858 1.88831 19.4975 4.01953 0.47089 15.4779 1.34318
internal_count=648000 469200 283317 17292 266025 36338 229687 6126 185883 14755 171128 33961 3304 137167 11166
is_linear=0
shrinkage=0.05


Tree=8
num_leaves=20
num_cat=0
split_feature=230 183 145 182 183 209 248 244 181 178 81 24 2 210 178 231 71 111 232
split_gain=11.0763 10.5933 10.5185 16.944 17.6231 26.1494 9.72736 8.67838 8.26882 15.137 7.82876 6.70807 6.20854 5.21085 8.69182 5.04066 4.61438 3.99561 3.54834
threshold=0.77500000000000013 0.10377492877492879 4.4772727272727275 0.11262254901960786 0.10425724637681161 0.8498634082582025 0.062650966183574894 1.0000000180025095e-35 0.06198686371100165 0.10823322732659314 55.000800000000012 0.11805555555555557 37.264938641821068 0.53717782638549705 0.059378717988939907 0.32051282051282054 0.9237867725265817 0.095119047619047631 0.19090909090909094
decision_type=2 2 2 2 2 2 2 2 2 2 2 2 2 2 2 2 2 2 2
left_child=2 -2 10 8 5 -5 -3 -6 9 -4 13 15 17 14 -1 -12 -15 -8 -10
right_child=1 6 3 4 7 -7 12 -9 18 -11 11 -13 -14 16 -16 -17 -18 -19 -20
leaf_value=0.088511380876039839 -0.019285425598259159 -0.010264169005923366 0.12003002677826663 0.010206267627513659 0.10818318387642545 0.19331728002851867 0 -0.039432283484124468 -0.044834621005679171 -0.010288282035064732 -0.0093133723309665479 -0.021621066916982571 -0.0028605019089438248 -0.041802298754623317 -0.027395600646976256 0.16887645841711241 0.05706083570617098 0.3057465177442531 0.00060453875840329422
leaf_weight=1.4907049486646489 0.79052389793650835 0.38408767340297345 2.2052326849225228 3.8994267336238391 0.23273885514936399 3.2947101935642422 0.086961536573653575 4.2020661663118517 9.6368879635629145 6.6793153215912753 0.35173624451999674 0.9378482682077447 0.16672290802671341 23.990382851618055 3.6441406001249561 0.34778129175538197 0.35434967002220119 0.11033882753690705 6.8048146744113174
leaf_count=13874 7247 3715 19527 36118 2114 28576 797 38307 90929 60442 2993 8363 1341 229964 33637 2930 3231 927 62968
internal_value=0.00303133 0.105592 -0.000709605 0.0170468 0.0644139 0.108034 0.175955 -0.0122852 -0.00613324 0.030423 -0.0218273 0.06185 0.239583 -0.0285158 0.0143812 0.123576 -0.0379714 0.279908 -0.0267854
internal_weight=69.6108 1.53863 68.0721 36.9552 11.6289 7.19414 0.748111 4.43481 25.3263 8.88455 31.1169 1.63737 0.364023 29.4796 5.13485 0.699518 24.3447 0.1973 16.4417
internal_count=648000 14027 633973 338981 105115 64694 6780 40421 233866 79969 294992 14286 3065 280706 47511 5923 233195 1724 153897
is_linear=0
shrinkage=0.05


Tree=9
num_leaves=20
num_cat=0
split_feature=230 247 81 9 140 106 284 182 241 208 2 251 150 184 183 170 47 165 148
split_gain=10.8334 11.097 9.97227 18.0483 20.5017 16.4123 10.4846 14.201 14.3929 9.38811 9.20638 8.8307 8.517 7.84685 5.91469 4.5517 4.0559 4.01021 1.73801
threshold=0.77500000000000013 0.15114427402653499 35.07433256348444 0.63739175341852372 0.80410642547374056 9.5000000000000018 92.500000000000014 0.11262254901960786 15.500000000000002 4.5000000000000009 37.264938641821068 0.15748521630874576 7.6710150770512291 0.034752415458937209 0.10377492877492879 59.500000000000007 0.30064102564102568 1.0991584302740469 0.26000000000000006
decision_type=2 2 2 2 2 2 2 2 2 2 2 2 2 2 2 2 2 2 2
left_child=2 10 6 11 15 -6 9 18 -9 16 14 -4 -13 -11 -2 -5 -1 -16 -8
right_child=1 -3 3 4 5 -7 7 8 -10 13 -12 12 -14 -15 17 -17 -18 -19 -20
leaf_value=-0.035745099295514123 -0.002636559112842907 -0.019886408171715306 -0.041138213327727741 -0.031854763268691438 -0.01366632974214998 0.26788981345923285 -0.034491306695045125 -0.019934764441667321 0.19916421235837378 0.079053100332849124 -0.0096205039315745214 0.12885883732672226 -0.024258221634509948 -0.0028631197596855557 0 0.089327730532498886 0.054755245542733803 0.30263211964090958 0.040036449366853924
leaf_weight=30.907182777940765 0.1612111798749527 0.82626076087035472 5.2027684484055481 2.0303346731816427 0.51363885891623784 1.1862661148334153 2.5453149531967934 0.82916484125598833 1.1872753191200898 2.448055498054603 0.3620171316943015 0.92886073927365975 1.1363158497260881 18.196965693161474 0.088953541358932853 0.040709260945732129 0.38415981557045498 0.12014420410559978 0.055124268117651698
leaf_count=308873 1413 7899 47703 17287 4197 10294 22474 7173 9647 20265 3175 8088 10255 163013 695 332 3888 845 484
internal_value=0.00337913 0.104378 -0.000364654 0.0409492 0.116628 0.207412 -0.00908716 0.055925 0.130672 -0.0159081 0.178014 -0.00706866 0.0625502 0.00982287 0.238254 0 -0.0328179 0.276688 -0.0208417
internal_weight=69.1507 1.55859 67.5921 11.0389 3.77095 1.6999 56.5532 4.61688 2.01644 51.9364 0.732326 7.26795 2.06518 20.645 0.370309 2.07104 31.2913 0.209098 2.60044
internal_count=648000 14027 633973 98156 32110 14491 535817 39778 16820 496039 6128 66046 18343 183278 2953 17619 312761 1540 22958
is_linear=0
shrinkage=0.05


Tree=10
num_leaves=13
num_cat=0
split_feature=292 230 72 103 117 72 247 12 2 255 49 243
split_gain=18.7784 10.697 12.3253 17.9379 18.2867 12.2706 10.8305 8.10394 7.92745 7.80126 5.27468 4.56629
threshold=1.0000000180025095e-35 0.77500000000000013 0.61247637051039705 32.500000000000007 0.11126984126984128 0.62689960368330766 0.15114427402653499 1.0600000000000001 37.264938641821068 0.15018796992481206 1.0129441738241594 23.500000000000004
decision_type=2 2 2 2 2 2 2 2 2 2 2 2
left_child=-1 2 7 5 -5 -4 8 9 10 -2 -3 -9
right_child=1 6 3 4 -6 -7 -8 11 -10 -11 -12 -13
leaf_value=-0.046283140743562323 -0.020898579851412233 0.28147208908961335 0.10366712365671514 0.016763107051781797 0.18883075014874073 -0.00025085406208427279 -0.016908939528765845 -0.037722645512471301 -0.0070460802035252589 0.14273623255219778 -0.0016405182154649593 0.013114726939458147
leaf_weight=13.783015263485138 0.88974715864606213 0.19164717363309935 2.2211538146075389 3.4182581172208293 2.3286368930130266 23.218473015767813 0.66196026318357326 15.689343451216702 0.28039330532919848 0.53057204469223507 0.13729080373013858 5.2578933226905056
leaf_count=178800 7776 1147 19075 27892 17012 198724 5974 138957 2155 4738 926 44824
internal_value=0.00379503 0.0170777 0.0122254 0.0321708 0.10488 0.0122109 0.123906 -0.0155566 0.19544 0.071881 0.247227 -0.0247182
internal_weight=68.6084 54.8254 53.5541 31.1865 5.7469 25.4396 1.27129 22.3676 0.609331 1.42032 0.328938 20.9472
internal_count=648000 469200 458998 262703 44904 217799 10202 196295 4228 12514 2073 183781
is_linear=0
shrinkage=0.05


Tree=11
num_leaves=16
num_cat=0
split_feature=292 178 60 178 150 282 183 183 176 283 183 281 23 81 181
split_gain=17.8205 10.8155 26.467 28.2381 28.9581 11.3686 17.8853 28.3225 7.69887 12.3605 4.70054 3.11354 2.19565 1.79481 0.330491
threshold=1.0000000180025095e-35 0.047100235098396899 1.0000000180025095e-35 0.022622259718769026 28.007913369429406 35.500000000000007 0.14013574660633488 0.062650966183574894 32.500000000000007 33.500000000000007 0.025105042016806727 88.500000000000014 0.91666666666666685 57.828404831320292 0.19834428024083198
decision_type=2 2 2 2 2 2 2 2 2 2 2 2 2 2 2
left_child=-1 2 3 11 -5 6 7 -3 10 -10 -7 -2 -8 -4 -15
right_child=1 5 13 4 -6 8 12 -9 9 -11 -12 -13 -14 14 -16
leaf_value=-0.046119194894748285 -0.035985709765260859 0 -0.040989702058198768 0.21489076358685694 -0.011637077340403673 0.015293418477489683 -0.04130120849538952 0.16176384511426448 0.12953445225435842 -0.031034356343849819 -0.039159649499933079 0.050045375917677007 0.042062178559128111 -0.0024875011830924536 0.04435268918402855
leaf_weight=13.159724029501374 2.9232594130080529 5.9957624252056103 5.1006658705518921 4.2662078064968227 1.7367334385053252 4.2833947966137265 5.3188266838114933 3.9346005573897855 1.2000847116723883 1.8993333371763581 17.899801757259411 0.44931225181062462 0.031908888107864075 0.1575645918273948 0.0068590089431381776
leaf_count=178800 25808 50097 45651 35500 15409 35823 46566 30917 9252 16074 152858 3771 252 1194 28
internal_value=0.00398447 0.0166253 0.0519721 0.0989023 0.156336 0.00280387 0.0356757 0.0730452 -0.0174755 0.04635 -0.0282234 -0.0145566 -0.0334718 -0.0332457 0.0315843
internal_weight=68.364 55.2043 14.6406 9.37551 6.00294 40.5637 15.2811 9.93036 25.2826 3.09942 22.1832 3.37257 5.35074 5.26509 0.164424
internal_count=648000 469200 127361 80488 50909 341839 127832 81014 214007 25326 188681 29579 46818 46873 1222
is_linear=0
shrinkage=0.05


Tree=12
num_leaves=16
num_cat=0
split_feature=292 284 282 146 258 9 213 77 47 210 44 282 102 36 116
split_gain=16.7318 10.4926 20.1353 18.6236 15.9495 11.4681 21.1956 26.5721 11.0018 7.05391 9.4388 7.44673 5.68646 5.8211 1.30061
threshold=1.0000000180025095e-35 88.500000000000014 46.500000000000007 4.286363636363637 0.86607142857142871 0.62526798935959438 2.9861312414130055 4.4807692307692317 0.20194676013641535 0.32000000000000006 0.1473449248120301 94.500000000000014 27.500000000000004 10.500000000000002 0.38603896103896113
decision_type=2 2 2 2 2 2 2 2 2 2 2 2 2 2 2
left_child=-1 5 3 14 -5 9 7 -7 -8 10 -2 -11 -4 -14 -3
right_child=1 2 12 4 -6 6 8 -9 -10 11 -12 -13 13 -15 -16
leaf_value=-0.045949233999184366 -0.023635387972222088 -0.024550547288399865 -0.036739490432475624 0.29403517604618945 -0.011128616000574226 -0.0067306187845017256 -0.020671788201467436 0.16410060914311442 0.10892147689259386 -0.029744775765613893 0.1506519668888609 0.057663802140716036 0.12791928430277688 -0.01923549704651191 0.043977898236953555
leaf_weight=12.566674717658314 1.0858261625326147 1.1607995548329193 3.1458527654103818 1.0201097740937255 0.41482134027319251 3.7371325178173738 12.806296002541782 4.3477822061977349 0.85622149327537123 23.924598191682893 0.47018805558036536 1.7399112613566092 0.37700850579130907 0.78751809262030292 0.010874540894292184
leaf_count=178800 8821 8977 24500 6574 2795 29497 106680 31160 6539 216560 3673 15670 2540 5160 54
internal_value=0.00391625 0.0158279 0.0693561 0.156559 0.235423 0.00692997 0.0332992 0.092537 -0.00533458 -0.0143936 0.0654094 -0.0216911 -0.0019875 0.0631834 -0.00165433
internal_weight=68.4516 55.8849 6.91698 2.60661 1.43493 48.968 21.7474 8.08491 13.6625 27.2205 1.55601 25.6645 4.31038 1.16453 1.17167
internal_count=648000 469200 50600 18400 9369 418600 173876 60657 113219 244724 12494 232230 32200 7700 9031
is_linear=0
shrinkage=0.05


Tree=13
num_leaves=13
num_cat=0
split_feature=292 230 145 182 282 247 239 81 189 48 96 165
split_gain=15.921 10.0349 11.2039 16.2949 21.8125 10.4966 9.8213 7.6787 7.62854 7.39263 6.1421 6.02472
threshold=1.0000000180025095e-35 0.77500000000000013 4.4772727272727275 0.10903263403263404 46.500000000000007 0.043518153009888823 5.5000000000000009 55.000800000000012 0.84523809523809534 0.14201038159371496 1.4693589958596143 0.2449786631268642
decision_type=2 2 2 2 2 2 2 2 2 2 2 2
left_child=-1 2 7 5 -5 -4 -3 11 -9 10 -8 -2
right_child=1 6 3 4 -6 -7 9 8 -10 -11 -12 -13
leaf_value=-0.045773134415659333 0.034084189612209513 -0.016984610912278549 0.064773886502417638 0.14120687883685754 0.0031065527273651367 -0.016671826858913864 -0.0032231095431826092 -0.02092235858739256 0.14017120416685427 -0.007514906642847566 0.27029495852878999 -0.032832471718103606
leaf_weight=12.002387417254793 3.102805401736993 0.66575644168915349 4.1838377927342725 5.2495272185187769 5.4955678650076152 15.649344569057574 0.17575847147963941 0.89124377212283323 0.55120641366374912 0.29450162566354265 0.23322577788349008 19.671269882244815
leaf_count=178800 28663 5785 33196 38024 43319 130543 1209 6616 3731 1877 1331 174906
internal_value=0.00413841 0.0155062 0.0108411 0.0305861 0.0772795 0.00255373 0.116714 -0.014117 0.0707753 0.181872 0.23034 -0.0224551
internal_weight=68.1664 56.164 54.7948 30.5783 10.7451 19.8332 1.36924 24.2165 1.44245 0.703486 0.408984 22.7741
internal_count=648000 469200 458998 245082 81343 163739 10202 213916 10347 4417 2540 203569
is_linear=0
shrinkage=0.05


end of trees

feature_importances:
Column_292=12
Column_81=9
Column_284=9
Column_6=6
Column_182=6
Column_183=6
Column_2=5
Column_178=5
Column_9=4
Column_44=4
Column_117=4
Column_170=4
Column_230=4
Column_247=4
Column_282=4
Column_47=3
Column_116=3
Column_141=3
Column_181=3
Column_184=3
Column_185=3
Column_189=3
Column_208=3
Column_209=3
Column_278=3
Column_5=2
Column_41=2
Column_49=2
Column_72=2
Column_75=2
Column_77=2
Column_95=2
Column_103=2
Column_106=2
Column_112=2
Column_145=2
Column_150=2
Column_165=2
Column_210=2
Column_216=2
Column_219=2
Column_241=2
Column_243=2
Column_244=2
Column_248=2
Column_251=2
Column_253=2
Column_255=2
Column_281=2
Column_283=2
Column_1=1
Column_12=1
Column_22=1
Column_23=1
Column_24=1
Column_32=1
Column_36=1
Column_37=1
Column_43=1
Column_46=1
Column_48=1
Column_60=1
Column_71=1
Column_78=1
Column_82=1
Column_87=1
Column_93=1
Column_96=1
Column_101=1
Column_102=1
Column_105=1
Column_108=1
Column_109=1
Column_111=1
Column_140=1
Column_144=1
Column_146=1
Column_148=1
Column_153=1
Column_161=1
Column_163=1
Column_176=1
Column_186=1
Column_213=1
Column_222=1
Column_231=1
Column_232=1
Column_233=1
Column_239=1
Column_240=1
Column_246=1
Column_250=1
Column_252=1
Column_254=1
Column_258=1
Column_261=1

parameters:
[boosting: gbdt]
[objective: binary]
[metric: binary_logloss]
[tree_learner: serial]
[device_type: cpu]
[data_sample_strategy: bagging]
[data: ]
[valid: ]
[num_iterations: 200]
[learning_rate: 0.05]
[num_leaves: 31]
[num_threads: 10]
[seed: 42]
[deterministic: 0]
[force_col_wise: 0]
[force_row_wise: 0]
[histogram_pool_size: -1]
[max_depth: 5]
[min_data_in_leaf: 3]
[min_sum_hessian_in_leaf: 0.001]
[bagging_fraction: 0.8]
[pos_bagging_fraction: 1]
[neg_bagging_fraction: 1]
[bagging_freq: 0]
[bagging_seed: 400]
[bagging_by_query: 0]
[feature_fraction: 0.8]
[feature_fraction_bynode: 1]
[feature_fraction_seed: 30056]
[extra_trees: 0]
[extra_seed: 12879]
[early_stopping_round: 0]
[early_stopping_min_delta: 0]
[first_metric_only: 0]
[max_delta_step: 0]
[lambda_l1: 0.1]
[lambda_l2: 1]
[linear_lambda: 0]
[min_gain_to_split: 0.1]
[drop_rate: 0.1]
[max_drop: 50]
[skip_drop: 0.5]
[xgboost_dart_mode: 0]
[uniform_drop: 0]
[drop_seed: 17869]
[top_rate: 0.2]
[other_rate: 0.1]
[min_data_per_group: 100]
[max_cat_threshold: 32]
[cat_l2: 10]
[cat_smooth: 10]
[max_cat_to_onehot: 4]
[top_k: 20]
[monotone_constraints: ]
[monotone_constraints_method: basic]
[monotone_penalty: 0]
[feature_contri: ]
[forcedsplits_filename: ]
[refit_decay_rate: 0.9]
[cegb_tradeoff: 1]
[cegb_penalty_split: 0]
[cegb_penalty_feature_lazy: ]
[cegb_penalty_feature_coupled: ]
[path_smooth: 0]
[interaction_constraints: ]
[verbosity: -1]
[saved_feature_importance_type: 0]
[use_quantized_grad: 0]
[num_grad_quant_bins: 4]
[quant_train_renew_leaf: 0]
[stochastic_rounding: 1]
[linear_tree: 0]
[max_bin: 255]
[max_bin_by_feature: ]
[min_data_in_bin: 3]
[bin_construct_sample_cnt: 200000]
[data_random_seed: 175]
[is_enable_sparse: 1]
[enable_bundle: 1]
[use_missing: 1]
[zero_as_missing: 0]
[feature_pre_filter: 1]
[pre_partition: 0]
[two_round: 0]
[header: 0]
[label_column: ]
[weight_column: ]
[group_column: ]
[ignore_column: ]
[categorical_feature: ]
[forcedbins_filename: ]
[precise_float_parser: 0]
[parser_config_file: ]
[objective_seed: 16083]
[num_class: 1]
[is_unbalance: 0]
[scale_pos_weight: 1]
[sigmoid: 1]
[boost_from_average: 1]
[reg_sqrt: 0]
[alpha: 0.9]
[fair_c: 1]
[poisson_max_delta_step: 0.7]
[tweedie_variance_power: 1.5]
[lambdarank_truncation_level: 30]
[lambdarank_norm: 1]
[label_gain: ]
[lambdarank_position_bias_regularization: 0]
[eval_at: ]
[multi_error_top_k: 1]
[auc_mu_weights: ]
[num_machines: 1]
[local_listen_port: 12400]
[time_out: 120]
[machine_list_filename: ]
[machines: ]
[gpu_platform_id: -1]
[gpu_device_id: -1]
[gpu_use_dp: 0]
[num_gpu: 1]

end of parameters

pandas_categorical:null
